tree
version=v4
num_class=1
num_tree_per_iteration=1
label_index=0
max_feature_idx=12
objective=binary sigmoid:1
feature_names=Column_0 Column_1 Column_2 Column_3 Column_4 Column_5 Column_6 Column_7 Column_8 Column_9 Column_10 Column_11 Column_12
feature_infos=[0:117.18626376538636] [0:154.55666689526373] [0.0033544590389746999:0.8959512010336933] [0:9] [0:11] [4.3553887175762377e-06:0.96849632435170996] [0.10000000000000001:62.710992375140108] [1:122.01560793287275] [0:1] [0:1] [0:1] [0:1] none
tree_sizes=3324 3436 3411 3438 3440 3406 3444 3460 3447 3411 3424 3460 3417 3435 3432 3457 3439 3448 3447 3439 3429 3426 3415 3415 3460 3433 3422 3435 3477 3440 3447 3464 3447 3436 3448 3431 3454 3435 3419 3445 3427 3453 3413 3443 3462 3410 3477 3427 3440 3441 3456 3421 3437 3439 3406 3425 3411 3460 3459 3424 3440 3426 3476 3435 3450 3417 3418 3437 3417 3416 3426 3421 3432 3454 3434 3431 3409 3446 3451 3474 3407 3443 3451 3435 3439 3433 3435 3471 3426 3413 3458 3437 3450 3427 3456 3424 3443 3469 3440 3441 3418 3438 3421 3427 3432 3431 3424 3431 3412 3421 3433 3424 3437 3427 3438 3429 3417 3422 3439 3414 3444 3442 3455 3418 3441 3442 3439 3420 3435 3419 3426 3412 3437 3426 3418 3415 3429 3441 3435 3426 3439 3455 3406 3432 3433 3423 3439 3429 3459 3451 3423 3409 3447 3444 3419 3409 3400 3444 3411 3433 3460 3432 3455 3444 3433 3422 3413 3452 3458 3423 3424 3441 3450 3427 3419 3412 3413 3435 3436 3441 3410 3433 3429 3413 3452 3432 3456 3439 3454 3421 3434 3432 3442 3426 3432 3423 3429 3449 3437 3461 3426 3430 3446 3441 3456 3427 3406 3432 3434 3410 3429 3436 3454 3423 3430 3458 3426 3430 3442 3412 3435 3410 3428 3434 3435 3427 3429 3448 3425 3420 3444 3416 3455 3448 3435 3456 3457 3435 3418 3440 3459 3447 3434 3452 3438 3454 3446 3421 3433 3420 3419 3442 3434 3422 3438 3456 3432 3457 3419 3436 3458 3454 3446 3436 3420 3413 3441 3400 3436 3439 3438 3441 3414 3420 3443 3438 3456 3438 3432 3444 3440 3445 3445 3440 3454 3441 3438 3444 3428 3445 3451 3430 3436 3418 3405 3479 3433 3433 3450 3430 3459 3424 3438 3437 3456 3444 3454 3450 3438 3445 3449 3483 3454 3428 3432 3428 3445 3461 3436 3447 3454 3455 3428 3447 3425 3429 3429 3442 3438 3459 3435 3426 3458 3473 3431 3463 3431 3429 3464 3461 3445 3455 3443 3430 3442 3437 3438 3435 3451 3474 3437 3443 3473 3445 3432 3477 3428 3473 3430 3431 3470 3448 3447 3446 3448 3441 3455 3448 3428 3429 3454 3423 3428 3459 3449 3456 3455 3478 3460 3460 3471 3439 3468 3466 3465 3464 3467 3443 3447 3427 3447 3452 3466 3474 3459 3414 3459 3463 3464 3477 3448 3433 3463 3467 3434 3460 3469 3459 3457 3458 3461 3472 3471 3453 3455 3436 3440 3456 3461 3472 3463 3459 3479 3430 3457 3457 3446 3458 3432 3468 3445 3428 3474 3447 3444 3446 3451 3486 3459 3446 3434 3476 3480 3434 3453 3465 3441 3483 3445 3465 3472 3465 3454 3458 3456 3452 3464 3459 3459 3479 3458 3469 3457 3484 3474 3466 3451 3460 3472 3426 3477 3450 3472 3451 3454 3469 3468 3471 3466 3443 3474 3478 3454 3443 3484 3448 3457 3454 3455 3472 3467 3455 3466 3437 3476 3482 3476 3474 3471 3464 3476 3451 3475 3439 3449 3458 3457 3461 3476 3469 3468 3458 3467 3476 3482 3472 3455 3458 3470 3484 3439 3481 3463 3481 3463 3481 3462 3453 3453 3465 3464 3452 3474 3466 3465 3493 3456 3490 3461 3456 3466 3462 3447 3473 3460 3478 3472 3451 3481 3459 3452 3451 3470 3464 3476 3473 3470 3475 3466 3482 3453 3450 3467 3495 3463 3487 3484 3451 3477 3476 3483 3477 3483 3487 3471 3472 3456 3469 3472 3474 3463 3486 3468 3460 3495 3460 3480 3471 3458 3454 3455 3473 3488 3457 3456 3475 3480 3471 3481 3476 3505 3464 3467 3483 3460 3474 3489 3456 3462 3453 3463 3469 3454 3457 3463 3473 3474 3477 3456 3451 3453 3476 3458 3478 3465 3465 3476 3455 3474 3479 3470 3479 3473 3485 3462 3481 3478 3458 3479 3448 3506 3465 3469 3476 3459 3480 3480 3493 3465 3472 3478 3489 3472 3465 3509 3459 3484 3447 3487 3479 3461 3484 3463 3456 3474 3454 3452 3457 3504 3463 3470 3478 3486 3470 3482 3478 3468 3469 3500 3464 3455 3479 3476 3467 3458 3489 3492 3464 3482 3474 3516 3469 3465 3447 3493 3482 3471 3459 3487 3474 3478 3475 3496 3470 3494 3481 3479 3471 3494 3484 3476 3452 3470 3473 3464 3469 3494 3503 3498 3468 3472 3480 3481 3485 3482 3495 3461 3469 3478 3453 3482 3505 3479 3492 3463 3472 3452 3490 3483 3473 3489 3487 3467 3506 3485 3487 3481 3468 3486 3483 3491 3502 3497 3502 3466 3475 3510 3470 3482 3484 3493 3485 3479 3468 3490 3472 3507 3475 3462 3476 3474 3501 3460 3464 3465 3481 3472 3475 3464 3491 3497 3487 3475 3481 3488 3493 3477 3498 3475 3459 3509 3474 3498 3470 3473 3491 3483 3493 3473 3493 3504 3476 3498 3477 3505 3470 3478 3456 3494 3491 3477 3494 3486 3465 3475 3504 3466 3485 3469 3487 3490 3491 3492 3498 3482 3485 3474 3474 3470 3503 3494 3472 3493 3493 3497 3484 3492 3479 3485 3511 3510 3485 3471 3483 3487 3460 3478 3472 3474 3466 3471 3481 3502 3513 3486 3491 3493 3491 3507 3481 3510 3492 3503 3486 3527 3486 3466 3483 3488 3488 3500 3481 3474 3480 3478 3480 3485 3519 3491 3484 3498 3490 3498 3484 3500 3497 3508 3486 3494 3502 3487 3508 3493 3487 3515 3500 3501 3488 3514 3537 3485 3526 3486 3494 3504 3494 3489 3487 3489 3501 3501 3499 3535 3508 3492 3503 3502 3505 3494 3500 3525 3510 3493 3499 3506 3516 3486 3487 3467 3494 3529 3517 3524 3533 3514 3515 3502 3517 3515 3500 3519 3495 3515 3503 3509 3508 3499 3513 3527 3510 3504 3524 3505 3508 3522 3499 3526 3520 3521 3497 3505 3499 3514 3492 3488 3508 3549 3512 3503 3498 3511 3517 3498 3508 3509 3492 3502 3519 3517 3495 3516 3512 3515 3511 3510 3540 3535 3511 3527 3507 3492 3513 3511 3520 3529 3518 3532 3519

Tree=0
num_leaves=31
num_cat=0
split_feature=3 2 2 3 2 3 5 3 3 2 5 5 3 2 2 5 2 5 2 2 5 2 5 5 2 2 5 3 5 5
split_gain=3221.47 1104.72 547.873 553.371 272.414 209.624 128.963 119.439 86.3164 136.86 90.4146 85.4467 52.4379 51.2116 36.2289 35.5346 34.1979 40.1472 31.858 28.4992 27.8483 27.775 25.0259 22.0355 20.2488 19.734 19.5196 18.937 21.2468 18.8616
threshold=1.5000000000000002 0.40556221875781434 0.19782789252141583 2.5000000000000004 0.20910960213396582 1.0000000180025095e-35 0.27810402467231271 1.0000000180025095e-35 2.5000000000000004 0.3393954166327362 0.12107293687636761 0.41649607659738958 3.5000000000000004 0.46792430303205146 0.29236526604770302 0.13975112774187823 0.49509509519202005 0.18705847303143633 0.11432800701906232 0.075639683965374613 0.34630885555586205 0.12812587303766679 0.31026554381909727 0.58225108165387096 0.23940986578066142 0.58576616642640711 0.096843449408629267 1.0000000180025095e-35 0.34279197867386374 0.21561336853493226
decision_type=2 2 2 2 2 2 2 2 2 2 2 2 2 2 2 2 2 2 2 2 2 2 2 2 2 2 2 2 2 2
left_child=1 4 3 11 27 29 14 13 9 10 24 18 15 -3 -7 19 17 -9 -2 -5 25 -13 -12 -8 -4 -15 -16 -1 -29 -6
right_child=2 7 8 12 5 6 23 16 -10 -11 22 21 -14 20 26 -17 -18 -19 -20 -21 -22 -23 -24 -25 -26 -27 -28 28 -30 -31
leaf_value=0.28742908942961665 0.32710033697735552 0.34394174924390175 0.35299245855817818 0.34162645151234267 0.29380262948469943 0.32830188728439463 0.39928483373052376 0.4043710200375939 0.48880631507046612 0.48460907750817606 0.4379654254157524 0.38762073144889142 0.48854516280889637 0.37709856015434223 0.34343351315648635 0.46369440906466419 0.47962771938876669 0.46665252901653326 0.3655671074376392 0.43081298878828989 0.46187871926074137 0.46375840685208441 0.47554161852162619 0.44626408630578907 0.40744313643476537 0.44422308224205465 0.38395275700748993 0.29980861248387553 0.32897383855678036 0.32477526200746154
leaf_weight=183.32175540924072 87.58172869682312 35.992491245269775 23.755044221878052 10.797747373580931 101.0189254283905 107.73752379417419 111.5767228603363 47.989988327026367 550.44516611099243 288.6597797870636 98.379476070404053 24.954793930053711 119.01517105102539 38.152040719985962 49.189738035202026 97.659626245498657 93.340527296066284 56.14828634262085 139.65086603164673 52.549037218093872 23.275144338607788 23.035194396972656 80.623180389404297 32.153292179107666 60.707335233688354 15.356796264648436 75.104331731796265 233.95119309425354 85.182229280471802 95.740026712417603
leaf_count=764 365 150 99 45 421 449 465 200 2294 1203 410 104 496 159 205 407 389 234 582 219 97 96 336 134 253 64 313 975 355 399
internal_value=0.407372 0.351092 0.454397 0.413893 0.327104 0.350684 0.372577 0.434206 0.474795 0.460827 0.43477 0.363544 0.463379 0.393154 0.349523 0.444776 0.45765 0.437951 0.350741 0.415611 0.416222 0.424167 0.45489 0.409794 0.392129 0.396363 0.367917 0.300236 0.307593 0.308873
internal_weight=3043.05 1385.23 1657.81 555.244 1074.98 572.521 375.762 310.255 1102.57 552.125 263.465 275.223 280.022 112.776 232.032 161.006 197.479 104.138 227.233 63.3468 76.784 47.99 179.003 143.73 84.4624 53.5088 124.294 502.455 319.133 196.759
internal_count=12682 5773 6909 2314 4480 2386 1566 1293 4595 2301 1098 1147 1167 470 967 671 823 434 947 264 320 200 746 599 352 223 518 2094 1330 820
is_linear=0
shrinkage=1


Tree=1
num_leaves=31
num_cat=0
split_feature=3 4 4 3 3 4 4 3 4 4 3 8 3 4 8 8 8 8 8 4 3 4 8 4 7 3 4 1 8 4
split_gain=2976.16 1001.51 466.439 459.888 208.669 124.689 102.732 75.7402 114.798 69.4322 67.4823 53.747 43.7064 42.6666 40.2175 33.5741 26.7427 23.5043 20.4096 18.5782 15.4034 15.2198 12.1801 11.524 11.2927 10.6168 8.30006 8.27862 7.8776 7.47751
threshold=1.5000000000000002 2.5000000000000004 1.5000000000000002 2.5000000000000004 1.0000000180025095e-35 3.5000000000000004 1.5000000000000002 2.5000000000000004 2.5000000000000004 4.5000000000000009 1.0000000180025095e-35 1.0000000180025095e-35 3.5000000000000004 1.0000000180025095e-35 1.0000000180025095e-35 1.0000000180025095e-35 1.0000000180025095e-35 1.0000000180025095e-35 1.0000000180025095e-35 1.0000000180025095e-35 1.0000000180025095e-35 4.5000000000000009 1.0000000180025095e-35 3.5000000000000004 25.558087884228652 1.0000000180025095e-35 3.5000000000000004 79.995153396670432 1.0000000180025095e-35 5.5000000000000009
decision_type=2 2 2 2 2 2 2 2 2 2 2 2 2 2 2 2 2 2 2 2 2 2 2 2 2 2 2 2 2 2
left_child=1 6 3 13 9 14 18 8 15 17 -8 24 19 22 -6 -4 -15 -3 25 -5 -20 28 -2 -10 -12 -1 -19 -24 -7 -11
right_child=2 4 7 12 5 21 10 -9 23 29 11 -13 -14 16 -16 -17 -18 26 20 -21 -22 -23 27 -25 -26 -27 -28 -29 -30 -31
leaf_value=-0.11376654752299142 -0.067161696327585049 -0.064604574154881564 0.018074242555990754 0.016776619923417994 -0.013603969807317044 0.03712846394303497 -0.093108100151036016 0.080005429928248092 0.063251172743013548 0.0036760196487584103 -0.04908212660425635 0.01126708806803515 0.078586392497505042 -0.026475487994491054 0.056052746005796718 0.077649810635594757 0.031858267840762192 -0.031260381924776696 -0.10482571562399311 0.051201299724158017 -0.053785064329770794 0.072636674636041468 -0.052069743839295385 0.082694444865116373 -0.073090419744089127 -0.097696961940614058 0.037399725650444679 0.039191730120035698 0.083488572862077406 0.051098285165428026
leaf_weight=163.30049100518227 83.64946337044239 126.18097238242626 190.86666925251484 59.811186730861664 153.78752863407135 81.89555087685585 137.8859531879425 529.36007131636143 152.26082284748554 24.136604472994804 124.84443573653698 31.889156982302666 119.94434909522533 178.91994239389896 23.94880485534668 26.993278801441193 22.07103955745697 11.143639713525774 23.836318284273148 113.69111660122871 38.91283942759037 75.086528122425079 5.2267028689384443 152.57362714409828 80.601370722055435 277.35469798743725 7.2752763032913199 4.7372628599405289 10.317568838596342 12.679145738482474
leaf_count=670 350 518 799 253 636 339 566 2242 638 99 517 133 509 749 100 114 93 46 98 481 162 311 22 639 333 1147 30 20 43 52
internal_value=0.000987761 -0.0524166 0.0467393 0.0110742 0.00211766 0.0249434 -0.0850923 0.0666744 0.0531734 -0.0412948 -0.0652891 -0.0491269 0.0553782 -0.0330558 -0.00421818 0.0254558 -0.0200698 -0.0569027 -0.099853 0.0393341 -0.0731737 0.0559242 -0.0609371 0.0729828 -0.0585012 -0.103652 -0.00414037 -0.00868043 0.0423156 0.020008
internal_weight=3045.18 1405.08 1640.11 588.051 526.452 345.036 878.625 1052.05 522.694 181.416 375.221 237.335 293.447 294.604 177.736 217.86 200.991 144.6 503.404 173.502 62.7492 167.3 93.6134 304.834 205.446 440.655 18.4189 9.96397 92.2131 36.8158
internal_count=12709 5800 6909 2477 2174 1429 3626 4432 2190 745 1549 983 1243 1234 736 913 842 594 2077 734 260 693 392 1277 850 1817 76 42 382 151
is_linear=0
shrinkage=0.05


Tree=2
num_leaves=31
num_cat=0
split_feature=9 2 4 4 2 2 4 4 4 4 2 2 2 4 2 2 4 2 4 2 4 2 2 2 4 2 4 2 2 2
split_gain=1456.17 1188.55 744.542 399.256 291.329 211.679 141.012 139.927 124.249 109.651 108.274 65.2647 51.3996 47.9597 75.1359 36.2319 35.8274 32.2868 27.5662 28.7181 23.316 22.1773 21.6355 16.1508 13.2121 11.2728 31.1524 11.0311 10.9557 10.5258
threshold=1.0000000180025095e-35 0.24598067912358018 2.5000000000000004 1.5000000000000002 0.44668123218346723 0.39317162878281348 3.5000000000000004 1.5000000000000002 3.5000000000000004 1.5000000000000002 0.281486611229876 0.13004094669221028 0.18866222977584193 2.5000000000000004 0.35050818308759374 0.49509509519202005 5.5000000000000009 0.16000245475585737 2.5000000000000004 0.55157826672818155 1.0000000180025095e-35 0.11823633281553451 0.30671048696558717 0.56535582647403981 4.5000000000000009 0.38407938122574042 2.5000000000000004 0.093583677835299459 0.36577587612668616 0.40556221875781434
decision_type=2 2 2 2 2 2 2 2 2 2 2 2 2 2 2 2 2 2 2 2 2 2 2 2 2 2 2 2 2 2
left_child=4 2 9 5 6 20 25 23 11 17 16 -4 27 14 -5 -7 -8 -2 19 -9 -3 -10 -22 -6 28 -1 -27 -11 -12 -16
right_child=1 3 8 13 7 15 10 18 21 12 24 -13 -14 -15 29 -17 -18 -19 -20 -21 22 -23 -24 -25 -26 26 -28 -29 -30 -31
leaf_value=-0.1101213075537245 -0.082669993683634549 -0.038532812715212555 -0.029809376942983787 0.0266768570890074 -0.11031744278126157 0.028932348759712075 -0.093395412062146091 -0.031684762794945517 0.035435301588849548 -0.060671292890633957 -0.015265542563541025 0.025484744436034164 -0.00025508154488024048 0.076416799921158962 0.054656784856318807 0.068801508009601414 0.031901277299260844 -0.054375314054895964 0.080312264358544494 0.080199842698930657 -0.026548556656609681 0.070125581804385453 0.007424469902966766 -0.034354459265383441 0.085833777290134139 -0.10333219995744183 0.0091335034005458528 -0.036658180366220781 0.065879890767106097 0.079525581385388899
leaf_weight=313.47713726758957 230.76861716806889 92.446223363280296 86.576526582241058 157.36246235668659 18.646337375044826 128.35846973955631 44.232679232954979 15.151139840483667 70.404755592346191 70.214456215500832 10.573334917426115 139.11619020998478 94.642433479428291 517.00968815386295 59.524092629551888 102.48064093291759 6.5501321703195563 179.04705040156841 34.055747270584106 9.2286915183067304 85.364754661917686 133.30257931351662 103.90768916904926 11.200358480215071 11.427628785371779 32.336496859788895 7.6055084019899359 149.99068659543991 6.8573318868875495 149.19337302446365
leaf_count=1267 954 386 362 663 76 540 180 62 296 292 43 586 398 2209 252 433 27 745 141 38 357 564 436 46 47 131 31 626 28 635
internal_value=-0.000373463 0.0151951 -0.0223459 0.0462378 -0.076514 0.0111353 -0.0933898 0.00626825 0.029826 -0.0532605 -0.0332861 0.00427372 -0.0310707 0.0666119 0.0527645 0.0466322 -0.0772342 -0.0703081 0.051256 0.0106678 -0.0179508 0.058136 -0.00789788 -0.0818114 0.0440507 -0.106934 -0.0819172 -0.044315 0.0166576 0.0724333
internal_weight=3071.05 2549.71 1154.06 1395.65 521.343 512.558 433.06 88.2823 429.4 724.663 79.6411 225.693 314.848 883.09 366.08 230.839 50.7828 409.816 58.4356 24.3798 281.719 203.707 189.272 29.8467 28.8583 353.419 39.942 220.205 17.4307 208.717
internal_count=12851 10734 4823 5911 2117 2152 1754 363 1808 3015 325 948 1316 3759 1550 973 207 1699 241 100 1179 860 793 122 118 1429 162 918 71 887
is_linear=0
shrinkage=0.05


Tree=3
num_leaves=31
num_cat=0
split_feature=9 2 10 2 10 2 5 2 2 5 10 5 2 5 2 5 5 5 2 5 5 2 2 10 5 5 2 2 2 2
split_gain=1273.32 1096.76 266.84 257.012 165.906 145.432 90.2294 85.5618 68.6868 59.7923 56.7684 45.7481 36.8408 27.6127 24.18 22.9413 22.2443 19.2863 18.9942 16.909 15.7012 15.0247 14.5558 14.1301 13.3014 13.0669 13.065 12.5897 11.722 9.88383
threshold=1.0000000180025095e-35 0.27797301967364024 1.0000000180025095e-35 0.46792430303205146 1.0000000180025095e-35 0.16164271851655834 0.25887825912474277 0.40556221875781434 0.40293275792671962 0.33985786170132842 1.0000000180025095e-35 0.16906759873415542 0.281486611229876 0.31545445250007209 0.22347841189791953 0.23133629026454425 0.2443778193016041 0.31288539506827678 0.57872066967574642 0.58823306629230665 0.53430093498106979 0.59381097641690272 0.19058728099687533 1.0000000180025095e-35 0.37615961565792466 0.22239055223910484 0.30242118047335037 0.11432800701906232 0.4990279120470536 0.11823633281553451
decision_type=2 2 2 2 2 2 2 2 2 2 2 2 2 2 2 2 2 2 2 2 2 2 2 2 2 2 2 2 2 2
left_child=3 2 22 12 8 9 14 11 16 27 -5 26 -1 -14 -7 21 -3 18 -10 -11 -8 -12 -2 -15 -13 -24 -6 -4 -17 -21
right_child=1 4 5 10 7 6 20 -9 17 19 15 24 13 23 -16 28 -18 -19 -20 29 -22 -23 25 -25 -26 -27 -28 -29 -30 -31
leaf_value=-0.097626083524417998 -0.092617092983597604 -0.055624735601141173 -0.044789856914825704 -0.10227557107712 0.0059547734964230025 -0.018729148454539133 0.024539903823187856 0.071883080953962342 -0.0028138892972142432 -0.010164511312485964 -0.021306056119542883 0.047363318659421255 -0.082121095965083296 -0.10606594432505119 0.0068783609668385303 0.0041213781627959774 0.0014004314736351725 0.068410087229240676 0.068211903990826592 0.008956962891554043 0.053993109871711756 0.049777137419902542 -0.081072498519699124 -0.028604218102019296 0.068483515031865713 -0.031844490543897756 0.033439691658526401 -0.026968025339856275 0.073555332919781474 0.062242605284434031
leaf_weight=273.43831136822701 89.807142153382301 45.689600557088852 227.65926244854927 9.6175167262554151 55.961812928318977 206.22612935304642 192.55236701667309 493.85670226812363 36.831220373511314 131.29995235800743 25.347791135311127 179.750752851367 107.8328506052494 6.7276314198970786 166.70379692316055 7.9728822559118262 27.330896839499474 26.17465814948082 12.644641682505606 24.854470744729042 59.148588731884956 10.518653109669684 31.432718977332115 47.127737686038017 127.37640212476254 23.601305723190308 190.16185504198074 175.47560173273087 25.583400249481201 13.391346856951712
leaf_count=1098 366 189 942 39 237 862 815 2144 156 548 104 768 435 27 705 33 114 112 54 104 253 44 129 191 548 98 811 731 107 57
internal_value=0.000378756 0.014915 -0.01611 -0.0713721 0.0497376 -0.00835579 0.00832979 0.0567553 0.000311358 -0.026555 0.0115706 0.0432516 -0.0864385 -0.0675187 -0.00728231 0.0273424 -0.0342807 0.0337008 0.0153383 -0.00164243 0.0314613 -0.000459288 -0.0802091 -0.0382808 0.0561226 -0.0599611 0.0271904 -0.0370324 0.057058 0.0276143
internal_weight=3052.1 2537.93 1342.15 514.167 1195.78 1197.31 624.631 1047.11 148.671 572.681 79.0402 553.251 435.127 161.688 372.93 69.4227 73.0205 75.6505 49.4759 169.546 251.701 35.8664 144.841 53.8554 307.127 55.034 246.124 403.135 33.5563 38.2458
internal_count=12821 10743 5610 2078 5133 5017 2635 4508 625 2382 327 2364 1751 653 1567 288 303 322 210 709 1068 148 593 218 1316 227 1048 1673 140 161
is_linear=0
shrinkage=0.05


Tree=4
num_leaves=31
num_cat=0
split_feature=3 3 11 11 3 10 10 5 11 10 3 5 5 5 5 3 5 10 5 10 5 5 7 5 5 5 5 5 7 5
split_gain=2531.2 367.301 431.757 326.001 176.059 172.91 159.57 126.619 50.5444 74.5104 61.9407 48.1579 41.8505 33.673 32.2907 28.7681 24.5669 24.3218 23.3442 18.2718 17.9294 13.3992 11.9338 10.9803 9.72893 7.82178 6.67019 5.88197 5.54493 6.86111
threshold=1.5000000000000002 2.5000000000000004 1.0000000180025095e-35 1.0000000180025095e-35 1.0000000180025095e-35 1.0000000180025095e-35 1.0000000180025095e-35 0.32461885161128928 1.0000000180025095e-35 1.0000000180025095e-35 3.5000000000000004 0.16906759873415542 0.20086198723011747 0.41649607659738958 0.28613869038248274 3.5000000000000004 0.096843449408629267 1.0000000180025095e-35 0.071727254057031356 1.0000000180025095e-35 0.52786227286365273 0.31026554381909727 55.193153424712513 0.37288573760765625 0.41649607659738958 0.29369620919085099 0.24236942401687916 0.029032582736031255 28.282412995212329 0.25887825912474277
decision_type=2 2 2 2 2 2 2 2 2 2 2 2 2 2 2 2 2 2 2 2 2 2 2 2 2 2 2 2 2 2
left_child=3 2 13 26 12 14 21 18 9 10 -3 -7 -5 19 -4 16 27 -14 -8 -2 -9 -6 28 -19 -13 -18 -1 -11 29 -20
right_child=1 8 5 4 6 11 7 20 -10 15 -12 24 17 -15 -16 -17 25 23 22 -21 -22 -23 -24 -25 -26 -27 -28 -29 -30 -31
leaf_value=-0.099640110840343299 -0.10511792351316701 -0.10860150062363666 -0.057028469062366562 -0.078165776112782429 -0.10140189823614904 0.031986338948382882 -0.045781050769847648 0.010197887316163098 0.07415494407964586 0.030909232975484396 0.061328208396649514 0.05510269871701421 -0.093536428084014828 -0.0016400590547275393 0.015056839050243773 0.080045052686460061 0.037674337861612728 -0.051948382184601405 -0.01786182542778339 -0.052540767482029883 0.042070298357359349 -0.055058181491077121 -0.065347959505180117 -0.027154094751456775 0.074068736150211728 0.071730461976271087 -0.085113813278429568 -0.015137192946412178 -0.029623886132407701 0.0053756531242421792
leaf_weight=174.78956320881844 18.953561350703239 13.48355107009411 49.336149081587791 201.13575673103333 55.508151665329933 256.74507084488869 121.16266971826553 122.63742996752262 605.24391916394234 10.70322570204735 8.903826639056204 205.25632308423519 23.713613063097 30.578106060624123 22.675847366452217 71.887898415327072 32.760187819600105 89.969661250710487 185.14808414876461 128.93345472216606 68.921794772148132 21.691829964518547 13.816028058528898 88.651515439152718 100.83332167565823 34.737374633550644 144.23886869847775 19.701245069503784 74.528154194355011 38.344200149178505
leaf_count=704 76 55 203 810 226 1102 504 519 2664 45 37 889 95 128 95 307 138 364 776 529 298 90 57 361 444 148 583 82 311 162
internal_value=1.1017e-05 0.0429485 0.0193065 -0.0485482 -0.0356961 0.0386219 -0.0205645 -0.012182 0.0670616 0.044722 -0.0410177 0.0479557 -0.0620146 -0.0494033 -0.0343295 0.056027 0.038391 -0.0459591 -0.0271561 -0.0592792 0.0216654 -0.0883801 -0.0199195 -0.0396427 0.0613506 0.0552012 -0.0930725 0.00107244 -0.0178134 -0.013875
internal_weight=3034.99 1610.73 813.312 1424.26 1105.23 634.847 701.758 624.558 797.421 192.177 22.3874 562.835 403.471 178.465 72.012 169.79 97.902 202.335 432.999 147.887 191.559 77.2 311.836 178.621 306.09 67.4976 319.028 30.4045 298.02 223.492
internal_count=12802 6942 3466 5860 4573 2733 2943 2627 3476 812 92 2435 1630 733 298 720 413 820 1810 605 817 316 1306 725 1333 286 1287 127 1249 938
is_linear=0
shrinkage=0.05


Tree=5
num_leaves=31
num_cat=0
split_feature=3 2 4 2 3 4 4 4 3 3 2 4 3 2 5 5 4 2 5 3 3 4 2 2 5 3 5 5 2 3
split_gain=2240.48 816.584 616.089 427.483 469.593 562.671 425.522 115.071 114.378 100.124 99.095 87.0459 139.916 241.074 109.233 76.8394 76.8358 122.391 73.5073 71.9035 70.966 69.906 66.3048 56.8222 54.3016 52.7666 51.816 46.949 46.7501 48.2098
threshold=1.5000000000000002 0.3527248802401553 3.5000000000000004 0.22207573936901973 2.5000000000000004 2.5000000000000004 1.5000000000000002 1.5000000000000002 3.5000000000000004 1.0000000180025095e-35 0.50276006794630368 1.5000000000000002 2.5000000000000004 0.3393954166327362 0.23133629026454425 0.43477418819638353 2.5000000000000004 0.27961661678064531 0.26335559945634684 1.0000000180025095e-35 1.0000000180025095e-35 2.5000000000000004 0.16860834296255686 0.52884960454848706 0.40118211694851463 1.0000000180025095e-35 0.23133629026454425 0.3577712732436425 0.18219768557631008 1.0000000180025095e-35
decision_type=2 2 2 2 2 2 2 2 2 2 2 2 2 2 2 2 2 2 2 2 2 2 2 2 2 2 2 2 2 2
left_child=1 2 16 4 5 15 10 8 18 -4 24 12 13 14 -5 -2 -1 27 -6 21 -19 23 26 -8 -3 -26 -11 -18 -29 -30
right_child=3 6 9 11 7 -7 19 -9 -10 22 -12 -13 -14 -15 -16 -17 17 20 -20 -21 -22 -23 -24 -25 25 -27 -28 28 29 -31
leaf_value=-0.098101637551768789 -0.095703906469545852 -0.10034362511251008 -0.035419123487458432 -0.10174120411952932 -0.065428323470285668 0.052592085379869848 -0.063221099205559669 0.075214293180051572 0.073226982034586482 -0.05844417077558331 0.0040972913208817416 0.073964281076519783 0.073980445103730613 0.062347478007537066 0.018726103290895645 -0.011427548946118592 -0.10053110251874109 -0.095601420143814411 0.038999630214410157 0.068548095296495054 0.055801329551238399 0.053539085017087699 0.071881975522898212 0.05642538368629281 -0.10202636925434441 0.051339869473377243 0.05380256597155763 -0.084303206326270086 -0.10168021169621969 0.079723129944121299
leaf_weight=620.04130111634731 175.35947893559933 83.841387987136841 66.438077628612518 47.566543757915497 45.091854616999626 122.09690673649311 34.068057537078857 203.07952585816383 48.021960437297821 22.829121887683868 49.166234746575356 585.10171009600163 179.69761541485786 102.17709232866764 31.133580312132835 31.978867501020432 103.78597205877304 10.49241481721401 26.906912341713905 171.76401908695698 29.500716611742973 56.861463874578476 69.853817000985146 14.00179649889469 9.7248891890048981 13.249485448002815 18.706172734498978 22.469477310776711 5.2480447739362726 12.123269498348236
leaf_count=2503 714 341 267 196 187 516 137 888 206 93 204 2656 799 442 132 135 420 42 114 744 125 235 298 58 39 56 77 91 21 52
internal_value=1.34429e-05 -0.0458275 -0.0710541 0.0405754 0.00944526 -0.0325609 0.0113969 0.052275 0.0134608 0.0131603 -0.0546439 0.0620558 0.0427321 0.0116876 -0.0540846 -0.0827055 -0.0896884 -0.0612787 -0.0264022 0.0486262 0.01608 0.0160157 0.0421355 -0.0283704 -0.0816819 -0.013579 -0.00789182 -0.0828194 -0.0366802 0.0249194
internal_weight=3012.38 1414.17 981.488 1598.21 652.536 329.435 432.677 323.1 120.021 177.827 155.982 945.677 360.575 180.877 78.7001 207.338 803.661 183.62 71.9988 276.695 39.9931 104.931 111.389 48.0699 106.816 22.9744 41.5353 143.627 39.8408 17.3713
internal_count=12788 5803 3989 6985 2760 1365 1814 1395 507 735 640 4225 1569 770 328 849 3254 751 301 1174 167 430 468 195 436 95 170 584 164 73
is_linear=0
shrinkage=0.05


Tree=6
num_leaves=31
num_cat=0
split_feature=3 2 2 3 2 10 10 10 3 2 10 3 3 5 3 10 5 5 2 5 5 2 3 5 2 2 2 5 2 2
split_gain=2080.03 757.64 399.935 385.096 158.865 132.405 108.837 73.9393 99.4384 128.016 73.9068 86.4447 72.6037 65.0235 62.2351 55.2282 55.9733 38.7534 36.7568 34.0289 31.434 30.984 56.1079 58.1381 30.4262 25.0781 24.4719 23.0814 21.4992 19.724
threshold=1.5000000000000002 0.40556221875781434 0.19782789252141583 2.5000000000000004 0.28339486963412303 1.0000000180025095e-35 1.0000000180025095e-35 1.0000000180025095e-35 2.5000000000000004 0.39112299115263399 1.0000000180025095e-35 1.0000000180025095e-35 1.0000000180025095e-35 0.16702447247679522 3.5000000000000004 1.0000000180025095e-35 0.41649607659738958 0.39341385317480104 0.55157826672818155 0.43477418819638353 0.3577712732436425 0.30671048696558717 2.5000000000000004 0.16906759873415542 0.098038216366315808 0.58576616642640711 0.10212767890979631 0.37981952674368397 0.16690522815793943 0.478995803507547
decision_type=2 2 2 2 2 2 2 2 2 2 2 2 2 2 2 2 2 2 2 2 2 2 2 2 2 2 2 2 2 2
left_child=1 4 3 15 17 25 14 8 9 19 -6 -12 18 -13 -5 -2 24 -1 20 -4 -7 22 23 -9 -17 -3 -18 -15 -19 -14
right_child=2 5 7 6 10 12 -8 21 -10 -11 11 13 29 27 -16 16 26 28 -20 -21 -22 -23 -24 -25 -26 -27 -28 -29 -30 -31
leaf_value=-0.08115106964997347 -0.097415842310375367 -0.079526555596847487 -0.10401374875373254 -0.089612081294655352 -0.096067002667860127 -0.033595442099266369 0.060014592843754259 0.0027724027493091479 0.065795252489131775 0.062157090570142508 -0.061307408652688314 -0.038588387603118994 0.040196415981430297 0.0013627049757579815 0.056814956684281694 -0.068393844498000358 -0.027254195996804606 -0.071558726835904612 0.052024513425602617 0.034125294904973645 0.03675170863785867 0.071858237783533827 0.073748943830355143 0.059679969919132131 -0.025801304583253856 0.011594589542300679 0.052104597825485315 0.048273816210217008 -0.036722325050008157 0.074920841220214709
leaf_weight=591.35923053324223 31.651495665311813 31.44398595392704 30.362536028027534 20.713132619857792 42.271945849061012 53.072124615311623 239.89049418270588 83.375028371810913 67.377390071749687 26.040115803480148 108.13258774578571 84.182930663228035 74.902925476431847 66.685193166136742 11.169799506664274 59.174250096082687 14.858146116137503 90.423759549856186 31.085987627506256 5.2254115641117087 22.660075113177299 536.58744265139103 164.86616949737072 97.207773819565773 143.87990941107273 9.9371166378259641 28.061187937855721 43.21273435652256 86.805806368589401 90.069218084216118
leaf_count=2390 127 128 123 84 170 215 1059 356 300 112 435 349 326 281 48 240 62 365 131 22 94 2500 757 432 595 41 122 187 360 399
internal_value=0.000616746 -0.0430284 0.0405085 0.00616996 -0.0623585 0.0256745 0.0484793 0.059168 0.0238121 -0.0220877 -0.0341432 -0.0254816 0.0383602 -0.00552124 -0.0383131 -0.0352477 -0.027248 -0.0750047 0.00624471 -0.0837307 -0.0125466 0.0643391 0.0526596 0.0334058 -0.0382137 -0.057645 0.0246316 0.0198085 -0.0544961 0.0591548
internal_weight=2986.69 1426.25 1560.44 549.398 1113.07 313.171 271.773 1011.04 129.005 61.6281 344.485 302.213 271.79 194.081 31.8829 277.625 245.973 768.589 106.818 35.5879 75.7322 882.036 345.449 180.583 203.054 41.3811 42.9193 109.898 177.23 164.972
internal_count=12810 5871 6939 2337 4537 1334 1191 4602 557 257 1422 1252 1165 817 132 1146 1019 3115 440 145 309 4045 1545 788 835 169 184 468 725 725
is_linear=0
shrinkage=0.05


Tree=7
num_leaves=31
num_cat=0
split_feature=3 2 2 3 2 2 3 2 3 8 3 3 2 8 8 3 2 2 8 2 2 2 8 8 8 8 2 2 8 7
split_gain=1831.82 723.386 377.877 414.339 109.439 79.2572 78.7504 61.8941 50.8991 50.1616 44.5378 35.8861 33.2494 29.5826 27.9039 26.6147 50.1989 16.6825 14.1973 13.4424 12.7143 12.3118 14.8484 12.1497 11.4369 11.3082 11.1197 9.89436 8.60974 7.89018
threshold=1.5000000000000002 0.34659078292848911 0.24268811439250035 2.5000000000000004 0.46792430303205146 0.20910960213396582 1.0000000180025095e-35 0.13960201763663768 1.0000000180025095e-35 1.0000000180025095e-35 3.5000000000000004 1.0000000180025095e-35 0.14152578470189295 1.0000000180025095e-35 1.0000000180025095e-35 2.5000000000000004 0.34213378310422615 0.29236526604770302 1.0000000180025095e-35 0.40556221875781434 0.087345122371102216 0.57182572012883692 1.0000000180025095e-35 1.0000000180025095e-35 1.0000000180025095e-35 1.0000000180025095e-35 0.077962283722966264 0.18521105894830206 1.0000000180025095e-35 49.423441929139159
decision_type=2 2 2 2 2 2 2 2 2 2 2 2 2 2 2 2 2 2 2 2 2 2 2 2 2 2 2 2 2 2
left_child=1 5 3 7 6 28 25 20 -7 17 12 21 24 27 19 16 18 -10 -4 -8 -2 22 -6 -22 26 -3 -5 -9 -1 -19
right_child=2 4 15 10 11 8 14 13 9 -11 -12 -13 -14 -15 -16 -17 -18 29 -20 -21 23 -23 -24 -25 -26 -27 -28 -29 -30 -31
leaf_value=-0.080328624540183358 -0.064380073860423201 -0.051952774186996301 0.026626789077542474 -0.015899709437966716 -0.014244168275990315 -0.072305230877072121 -0.009610457471709825 -0.026658932807303939 -0.054203295121424161 0.019385755468404972 0.072275403571801844 0.057633168784215538 0.054850011789455304 0.048345331319190103 0.064416658531771087 0.070718730318850787 0.067077252164733522 -0.023270811149956081 0.072747828119806013 0.02026076102339279 -0.042413857870080486 0.039682227573725727 0.062403438894542751 0.018136716674300599 0.069901002220739458 -0.0027863185439416919 0.021975998480504064 -0.0030500233573552446 -0.061294166631549067 -0.080907269524392533
leaf_weight=462.83585175871849 72.075107619166374 84.45407809317112 150.79340061545372 30.536002174019814 40.100383341312408 154.59734243154526 86.498525276780128 81.529664650559425 160.30374962091446 34.995964080095291 143.64900149405003 115.3233867585659 105.23770914971828 21.438587605953217 21.345019653439522 401.28292034566402 246.43294923007488 84.027758702635765 18.76195701956749 66.708450421690941 80.254406556487083 27.861655563116074 7.5004597604274741 9.2381588369607908 8.2333441674709302 13.574654117226599 53.032624334096909 97.391837149858475 68.157016739249229 6.3894042074680319
leaf_count=1871 292 341 666 131 164 625 362 338 653 151 657 515 475 96 96 1929 1153 349 88 289 327 118 32 39 37 55 230 414 276 26
internal_value=0.00016541 -0.0403569 0.0384158 0.0115275 0.0110468 -0.0648793 -0.00928238 -0.0257251 -0.0491947 -0.0366899 0.0511025 0.0400917 0.0356666 -0.00715754 0.0108578 0.061532 0.0526699 -0.044517 0.0317303 0.00339589 -0.0487508 0.0132844 -0.00216681 -0.0361633 0.0136756 -0.0451444 0.0081362 -0.013808 -0.0778854 -0.0273437
internal_weight=2954.56 1434.67 1519.89 702.616 463.367 971.307 272.581 361.928 440.314 285.717 340.689 190.786 197.04 200.36 174.552 817.271 415.988 250.721 169.555 153.207 161.568 75.4625 47.6008 89.4926 91.802 98.0287 83.5686 178.922 530.993 90.4172
internal_count=12795 5923 6872 3036 1972 3951 1143 1506 1804 1179 1530 829 873 848 747 3836 1907 1028 754 651 658 314 196 366 398 396 361 752 2147 375
is_linear=0
shrinkage=0.05


Tree=8
num_leaves=31
num_cat=0
split_feature=3 2 2 3 2 2 3 2 3 3 3 8 8 3 2 2 8 8 8 2 2 8 7 2 8 2 8 2 7 2
split_gain=1701.72 618.483 333.411 386.796 94.7129 89.3215 65.004 62.8866 43.6411 41.4112 39.7677 39.4582 32.5008 29.779 51.4603 25.6798 25.5761 15.5232 14.2308 13.5317 12.5203 12.5246 10.7594 9.6659 9.45757 9.10729 8.53878 8.44699 8.18919 7.46238
threshold=1.5000000000000002 0.3527248802401553 0.24598067912358018 2.5000000000000004 0.46792430303205146 0.23058243149182253 1.0000000180025095e-35 0.11432800701906232 1.0000000180025095e-35 1.0000000180025095e-35 3.5000000000000004 1.0000000180025095e-35 1.0000000180025095e-35 2.5000000000000004 0.37005153802411578 0.14152578470189295 1.0000000180025095e-35 1.0000000180025095e-35 1.0000000180025095e-35 0.28861281046943149 0.58576616642640711 1.0000000180025095e-35 36.7991786961149 0.18521105894830206 1.0000000180025095e-35 0.40556221875781434 1.0000000180025095e-35 0.28339486963412303 7.324350981108374 0.19058728099687533
decision_type=2 2 2 2 2 2 2 2 2 2 2 2 2 2 2 2 2 2 2 2 2 2 2 2 2 2 2 2 2 2
left_child=1 5 3 7 6 17 24 -2 -7 20 15 23 19 14 18 26 25 -1 27 -10 21 -6 -21 -9 -3 -8 -5 -4 -27 -19
right_child=2 4 13 10 9 8 16 11 12 -11 -12 -13 -14 -15 -16 -17 -18 29 -20 22 -22 -23 -24 -25 -26 28 -28 -29 -30 -31
leaf_value=-0.075812129279749826 -0.055259047645388984 -0.052228856648463398 0.013225755203606498 0.010912136649085594 -0.01300117626728441 -0.064967227864092217 -0.010439599544216201 -0.026121337967794131 -0.048283410558312728 0.056025517927985574 0.070853623836479029 0.049643545559139031 0.017995321481871197 0.069366487727220025 0.067755915948182657 0.053272337809474136 0.063175790962368944 -0.060402364664716969 0.071173813252743953 -0.015680669836428445 0.038837221270024216 0.054959216966916781 -0.058372446886371221 -0.0052307206604162975 -0.0036382323165446103 -0.046658098484640927 0.059857189751331578 0.035696637880508468 0.020119452252988838 -0.023703098475681725
leaf_weight=532.55743001401424 111.12176406383514 73.668573319911957 63.358309641480446 79.407303839921951 49.129834875464439 132.92803260684013 77.444904386997223 122.31845989823341 113.10630129277706 112.63707999885082 142.21599735319614 24.939582392573357 31.513796985149384 385.04557766020298 205.95019987225533 100.08142538368702 18.804621413350105 60.011858507990837 21.32829824090004 84.125805646181107 24.966582864522934 7.8646886050701132 17.898446246981621 101.16630463302135 11.589591160416601 4.9738467484712592 10.037173479795454 123.03487189114094 59.66724319756031 18.008265092968941
leaf_count=2165 450 298 279 344 201 541 324 503 459 513 669 113 137 1908 993 461 87 243 103 349 107 34 73 430 47 21 46 557 260 75
internal_value=-4.38105e-05 -0.0389883 0.0373557 0.0119324 0.0102821 -0.06092 -0.0103266 -0.0239933 -0.0418733 0.0363502 0.050869 -0.0100079 -0.0294269 0.0593596 0.0500451 0.035873 0.00837777 -0.0727607 0.0324854 -0.0363736 0.00931081 -0.0036233 -0.0231702 -0.0166646 -0.0456237 0.00112543 0.0164046 0.0280584 0.0149812 -0.0519316
internal_weight=2920.9 1430.9 1490.01 691.288 440.747 990.15 246.149 359.546 379.572 194.598 331.742 248.424 246.644 798.717 413.672 189.526 160.891 610.578 207.721 215.131 81.9611 56.9945 102.024 223.485 85.2582 142.086 89.4445 186.393 64.6411 78.0201
internal_count=12790 5934 6856 3016 1892 4042 1037 1496 1559 855 1520 1046 1018 3840 1932 851 692 2483 939 881 342 235 422 933 345 605 390 836 281 318
is_linear=0
shrinkage=0.05


Tree=9
num_leaves=31
num_cat=0
split_feature=9 11 5 5 11 5 5 5 6 5 1 5 1 6 1 6 1 6 6 6 0 5 6 6 0 6 0 6 5 0
split_gain=722.97 449.732 142.692 32.516 29.6324 29.5312 23.4869 12.0896 8.76888 7.63905 7.54748 5.50064 5.91289 5.45942 5.20023 6.17392 4.85057 4.05322 3.93986 4.74431 3.93074 3.994 3.91486 5.80503 4.50239 3.60148 3.59237 3.53419 3.72067 4.44046
threshold=1.0000000180025095e-35 1.0000000180025095e-35 0.27810402467231271 0.34279197867386374 1.0000000180025095e-35 0.1985429570324542 0.10571396408143426 0.53964696570669635 5.100364017526859 0.68990237372966356 58.631641967274923 0.60693036566096137 78.423653493528619 10.246085701398355 70.774512696726745 22.863369505192914 94.777267188666187 19.939749722114236 2.6907127190561337 4.289696467532889 25.910823564014411 0.30445157370939219 18.246289496681818 11.175011279993557 49.69987138947964 2.0340286017405647 67.805966220561046 27.337621773992247 0.12953037063654993 26.459405464250921
decision_type=2 2 2 2 2 2 2 2 2 2 2 2 2 2 2 2 2 2 2 2 2 2 2 2 2 2 2 2 2 2
left_child=4 3 6 8 -1 -6 -3 -4 20 18 13 12 -12 -5 15 -8 27 26 -7 -20 -2 -22 23 -14 -25 -16 -18 28 -10 -30
right_child=1 2 7 10 5 9 14 -9 16 -11 11 -13 22 -15 25 -17 17 -19 19 -21 21 -23 -24 24 -26 -27 -28 -29 29 -31
leaf_value=-0.0777070232356704 0.018203990296563534 0.0055313128024661378 0.038262426650129099 0.03128521317626385 -0.062629496095554224 -0.060535871273042878 0.028628811548236079 0.053822734170589595 -0.051550362014895212 -0.0026127230110059101 -0.033009079379252744 0.0076305200646969292 -0.0037327418491952197 -0.014323156395666704 0.034005097644772074 -0.0087695272970432659 -0.027166780786946343 -0.061071735380114581 -0.013731239041400077 -0.038869823663157527 -0.022473976003594975 -0.059447334907920424 0.028486238572984008 -0.063733376728765848 -0.011657274991196891 0.015378758870174937 0.01593900241981306 -0.013462958597531816 -0.075560485628709415 -0.035833609395648072
leaf_weight=107.72109182178974 5.444817215204238 549.05105221271515 477.8980970531702 17.824332013726238 186.58175301551819 17.760678723454475 186.19415038824081 168.96364441514015 104.39821219444275 16.459952473640442 43.578031301498413 24.231479525566101 44.172186523675919 10.38387757539749 27.769047498703003 11.730893671512602 50.131516516208649 8.0040130317211133 21.349787876009941 155.23932510614395 91.442475035786629 7.9382472187280646 6.2042786031961432 8.5330602973699587 8.0814461410045606 396.53911127150059 5.3490988165140143 9.4236379861831647 7.5341597944498053 105.94578658044338
leaf_count=449 23 2472 2215 78 770 73 852 815 435 68 182 105 188 44 127 52 211 33 88 638 387 33 27 35 34 1795 23 40 31 445
internal_value=-0.000122622 0.0114224 0.0234782 -0.0278159 -0.0544466 -0.0481414 0.0130687 0.0423269 -0.0355593 -0.0353183 -0.00902319 -0.0139448 -0.0186731 0.0144961 0.0197196 0.0264122 -0.0400287 -0.0278094 -0.0380882 -0.0358305 -0.023161 -0.0254273 -0.00934746 -0.013209 -0.0384031 0.0165978 -0.0230108 -0.0434415 -0.0447382 -0.0384712
internal_weight=2881.88 2376.77 1818.15 558.621 505.113 397.391 1171.28 646.862 395.612 210.81 163.009 134.8 110.569 28.2082 622.233 197.925 290.786 63.4846 194.35 176.589 104.826 99.3807 66.991 60.7867 16.6145 424.308 55.4806 227.302 217.878 113.48
internal_count=12768 10682 8328 2354 2086 1637 5298 3030 1661 867 693 571 466 122 2826 904 1218 267 799 726 443 420 284 257 69 1922 234 951 911 476
is_linear=0
shrinkage=0.05


Tree=10
num_leaves=31
num_cat=0
split_feature=4 2 2 4 4 2 2 4 5 5 2 5 5 5 2 4 4 5 2 2 5 2 2 5 5 2 2 5 2 4
split_gain=977.887 604.762 196.325 122.092 114.229 88.0959 71.0902 48.33 34.4853 33.39 32.9072 37.7302 29.7344 21.5968 20.9859 27.6304 20.5062 19.3436 19.9906 18.6446 13.5613 13.5384 12.9838 12.8139 11.6204 11.424 11.418 8.68017 8.56845 8.41129
threshold=2.5000000000000004 0.34659078292848911 0.24433861566029372 3.5000000000000004 1.5000000000000002 0.49509509519202005 0.19405765499794833 1.5000000000000002 0.37981952674368397 0.17328980848014178 0.18692610549611657 0.29369620919085099 0.28099946685282651 0.26812236532848349 0.36577587612668616 3.5000000000000004 4.5000000000000009 0.17090094198236014 0.40556221875781434 0.10737311470816116 0.084500610272865359 0.15229076350421947 0.25575362968732201 0.011041306505412952 0.3601606323906501 0.087345122371102216 0.11432800701906232 0.67785293086399123 0.41603168614970787 1.5000000000000002
decision_type=2 2 2 2 2 2 2 2 2 2 2 2 2 2 2 2 2 2 2 2 2 2 2 2 2 2 2 2 2 2
left_child=1 4 3 8 10 7 13 12 19 22 -1 -12 -3 -6 15 20 24 18 -9 -2 -4 -10 -8 -7 26 -15 -5 -13 -14 -25
right_child=2 5 14 16 6 23 9 17 21 -11 11 27 28 25 -16 -17 -18 -19 -20 -21 -22 -23 -24 29 -26 -27 -28 -29 -30 -31
leaf_value=-0.065882408289261674 -0.044743002633521295 -0.021965771826921048 0.0046309010547616897 -0.003196463639618799 -0.053745798509714782 -0.016934643598407375 -0.043884557731134845 -0.016587517854141986 -0.00092033731691701858 0.0098549684077781814 -0.055322355102144651 -0.026051083359266175 0.0014007255275637698 -0.050102382335881823 0.06811559829590122 0.064932585288984074 0.057644581565341246 0.044013863245258876 0.038412822597986271 -0.0099115625786562276 0.041721911218872566 0.046173119923849544 -0.010042392966703518 0.041471803904437637 0.053576399773041232 -0.012714420561086195 0.031407142736655146 0.018293032893061972 0.033687656672110884 0.063028309033180338
leaf_weight=339.05158904194832 54.682960495352745 142.85190810263157 32.513556629419327 35.067893341183662 160.81780689954758 7.2867297530174246 53.773860201239586 36.773021668195724 29.926229774951935 150.44610834121704 257.46035675704479 110.23032592236996 46.701196581125259 29.1651701182127 292.34606537222862 132.36487238109112 101.50987431406975 85.750044673681259 29.998124912381172 129.17670628428459 101.81002521514893 31.142634078860283 59.925298973917961 106.13245774805546 34.573663979768753 68.225100204348564 74.44891394674778 12.263333112001417 36.695000097155571 78.890138447284698
leaf_count=1423 229 635 147 147 677 33 230 166 129 680 1098 482 212 123 1426 616 437 409 142 556 471 142 265 499 155 294 325 56 173 385
internal_value=0.000199626 -0.0220413 0.0386063 0.0155207 -0.0416311 0.0205413 -0.0238363 0.00654821 -0.00945832 -0.00559917 -0.0545589 -0.0444543 -0.00811617 -0.0424927 0.0588629 0.04872 0.0404314 0.0283012 0.00812236 -0.020271 0.0327439 0.0230954 -0.026048 0.0481018 0.0283049 -0.0239109 0.0203269 -0.0216116 0.0156072 0.0506631
internal_weight=2862 1812.44 1049.56 490.529 1241.36 571.079 522.353 378.769 244.929 264.145 719.006 379.954 226.248 258.208 559.035 266.688 245.6 152.521 66.7711 183.86 134.324 61.0689 113.699 192.309 144.09 97.3903 109.517 122.494 83.3962 185.023
internal_count=12762 7982 4780 2120 5328 2654 2269 1737 1056 1175 3059 1636 1020 1094 2660 1234 1064 717 308 785 618 271 495 917 627 417 472 538 385 884
is_linear=0
shrinkage=0.05


Tree=11
num_leaves=31
num_cat=0
split_feature=3 4 4 3 4 3 4 3 4 3 3 8 8 4 8 8 4 4 4 4 8 3 3 8 8 3 8 8 7 1
split_gain=1541.69 693.963 345.12 298.735 142.885 58.3048 95.186 49.6325 48.9518 45.2472 38.2758 29.8102 28.564 25.4263 23.4733 23.3388 18.1585 14.6415 13.4548 13.0204 11.2981 10.1441 8.37419 7.14333 6.99102 6.55439 6.11849 6.05822 5.65259 5.50696
threshold=1.5000000000000002 2.5000000000000004 1.5000000000000002 2.5000000000000004 3.5000000000000004 2.5000000000000004 2.5000000000000004 1.0000000180025095e-35 1.5000000000000002 3.5000000000000004 1.0000000180025095e-35 1.0000000180025095e-35 1.0000000180025095e-35 4.5000000000000009 1.0000000180025095e-35 1.0000000180025095e-35 4.5000000000000009 3.5000000000000004 1.0000000180025095e-35 1.0000000180025095e-35 1.0000000180025095e-35 1.0000000180025095e-35 1.0000000180025095e-35 1.0000000180025095e-35 1.0000000180025095e-35 1.0000000180025095e-35 1.0000000180025095e-35 1.0000000180025095e-35 37.101554051498603 96.52045766101233
decision_type=2 2 2 2 2 2 2 2 2 2 2 2 2 2 2 2 2 2 2 2 2 2 2 2 2 2 2 2 2 2
left_child=1 8 3 14 10 6 15 13 24 18 -3 -12 21 20 19 -4 23 -8 26 -2 -6 -10 -14 -9 -1 -26 -5 -20 -23 -15
right_child=2 4 5 9 7 -7 17 16 12 -11 11 -13 22 29 -16 -17 -18 -19 27 -21 -22 28 -24 -25 25 -27 -28 -29 -30 -31
leaf_value=-0.078099149902538315 -0.053119670425971877 -0.043740835748292184 0.010958496678896847 0.00078670955451573944 -0.021984978498609812 0.067855700583603448 0.050483402119470833 0.032411034975242357 -0.069183342057723349 0.0682718710356289 -0.011624111928349508 0.051178068575189188 -0.041234861982005246 0.04901024805121907 0.0096044198461626984 0.064046207448671275 0.072369033397501309 0.073690471309834665 0.032301982764647984 -0.028649143129882045 0.049851480939409776 -0.046939858783804758 -0.00026501253627584742 0.075113823130566734 -0.081883199211893118 -0.048382320473323588 0.055031070343258374 0.070375911982089895 -0.069005849814586004 0.00044907577559270872
leaf_weight=427.71432708203793 79.05242620408535 91.646423026919365 183.45526698231697 50.856054872274399 51.192851960659027 431.73338924348354 137.43072792887688 77.832694873213768 115.38993586599827 103.8984779715538 150.52724851667881 21.607759714126587 21.248446881771088 28.916518449783325 31.30315375328064 23.336337894201279 66.15082859992981 134.46065038442612 92.694152280688286 174.02967281639576 6.1286128610372534 171.52461124956608 30.198721051216125 11.202882215380667 22.698575183749199 40.9224544018507 5.7903488576412192 11.775126367807387 34.933863744139671 7.3149999976158133
leaf_count=1786 333 383 824 228 210 2198 645 337 485 503 640 102 88 118 143 118 291 646 433 757 26 722 134 53 94 173 28 58 145 30
internal_value=-0.00015335 -0.0381022 0.0356466 0.00435112 0.0079984 0.0545322 0.0425155 0.0351852 -0.065429 0.0425445 -0.0176381 -0.00374068 -0.0517799 0.00641922 -0.0312407 0.0169494 0.0525265 0.0619602 0.0259537 -0.0362927 -0.0143045 -0.0573097 -0.0171862 0.0377841 -0.0757989 -0.0603347 0.00633152 0.0365934 -0.0506735 0.0392059
internal_weight=2836.97 1377.15 1459.82 549.399 512.521 910.416 478.683 248.739 864.631 265.014 263.781 172.135 373.296 93.553 284.385 206.792 155.186 271.891 161.116 253.082 57.3215 321.848 51.4472 89.0356 491.335 63.621 56.6464 104.469 206.458 36.2315
internal_count=12731 5817 6914 2483 2190 4431 2233 1065 3627 1250 1125 742 1574 384 1233 942 681 1291 747 1090 236 1352 222 390 2053 267 256 491 867 148
is_linear=0
shrinkage=0.05


Tree=12
num_leaves=31
num_cat=0
split_feature=3 4 2 4 2 3 2 4 2 3 4 4 3 2 5 5 3 5 5 2 3 5 3 4 2 5 2 2 4 2
split_gain=1407.39 633.094 388.079 313.748 356.668 364.799 304.081 162.41 81.9966 135.593 214.332 81.5761 67.8471 110.218 62.8737 55.0563 52.727 48.2557 48.1985 55.9411 47.4187 45.6125 41.3256 38.6041 45.3816 57.8462 37.8666 37.0568 36.4517 50.4249
threshold=1.5000000000000002 2.5000000000000004 0.27611689696313174 1.5000000000000002 0.30671048696558717 2.5000000000000004 0.41603168614970787 4.5000000000000009 0.19405765499794833 2.5000000000000004 2.5000000000000004 1.5000000000000002 3.5000000000000004 0.18055200792181006 0.28099946685282651 0.38648252830163027 1.0000000180025095e-35 0.30739403227243106 0.35246248168611488 0.19405765499794833 1.0000000180025095e-35 0.33985786170132842 1.0000000180025095e-35 3.5000000000000004 0.13004094669221028 0.21364232890503451 0.58576616642640711 0.10737311470816116 3.5000000000000004 0.16860834296255686
decision_type=2 2 2 2 2 2 2 2 2 2 2 2 2 2 2 2 2 2 2 2 2 2 2 2 2 2 2 2 2 2
left_child=1 6 7 4 5 18 -1 15 9 10 14 17 13 21 -5 28 -17 26 -2 -20 -13 -7 -9 24 25 -12 -8 -16 -3 -30
right_child=3 2 -4 8 -6 12 11 22 -10 -11 23 20 -14 -15 27 16 -18 -19 19 -21 -22 -23 -24 -25 -26 -27 -28 -29 29 -31
leaf_value=-0.077297972510322652 -0.09299056993181623 -0.083195325422220273 0.055484094792398998 -0.098531099761012195 0.054520164430060518 -0.079245340452746782 -0.076623059187015452 -0.018435904328629467 0.064647069030383961 0.067910055970575478 -0.084910267245580442 -0.0090054577985558531 0.068359698571375471 0.057463423673341098 -0.07641984397205849 -0.073644864455768594 0.034619627763793674 0.017719316182609687 -0.083033625916988651 0.027343887333041009 0.071150142915513928 0.033603494368988962 0.069683972338616951 0.079769448851121305 0.071848623945911322 0.059655830606068633 0.015159122406614193 0.050728925891784932 -0.082562493829810429 0.0079563774356651122
leaf_weight=690.80182014405727 129.00004889070988 107.56359949707985 232.41006420552731 46.249626994132996 217.99159236252308 36.393838301301003 52.908309906721115 19.852967366576195 557.66831214725971 148.43514105677605 16.356776386499408 32.840540185570717 62.253941342234612 44.72869548201561 9.399119049310686 17.774586126208305 30.618641942739487 31.694282844662666 25.619010701775551 20.798234894871712 42.110265269875526 11.876276284456251 40.338721185922623 51.10314354300499 22.08260303735733 11.993273332715033 14.268381640315054 14.680910438299177 29.272214382886887 32.430777564644814
leaf_count=2898 526 443 1042 186 1068 150 218 80 2943 714 66 135 297 209 38 73 130 136 105 92 199 52 169 222 97 49 61 62 119 134
internal_value=-0.000259585 -0.0363593 0.00780673 0.0345307 0.00486927 -0.0278627 -0.062424 -0.0320732 0.0530668 0.0329046 0.00267142 -0.00331197 0.0279606 0.000917283 -0.0644189 -0.0521757 -0.00514537 -0.0331351 -0.077269 -0.0335766 0.0360291 -0.0514803 0.0406195 0.0491421 0.0181076 -0.0237527 -0.0571285 0.00109915 -0.0656216 -0.0349862
internal_weight=2801.52 1374.89 510.262 1426.63 548.662 330.67 864.624 277.852 877.969 320.301 171.865 173.822 155.253 92.9988 70.3297 217.66 48.3932 98.871 175.417 46.4172 74.9508 48.2701 60.1917 101.536 50.4327 28.35 67.1767 24.08 169.267 61.703
internal_count=12713 5837 2190 6876 2499 1431 3647 1148 4377 1434 720 749 708 411 286 899 203 415 723 197 334 202 249 434 212 115 279 100 696 253
is_linear=0
shrinkage=0.05


Tree=13
num_leaves=31
num_cat=0
split_feature=4 9 9 4 5 4 4 5 5 5 5 5 4 5 5 4 5 5 4 5 0 6 5 6 5 0 6 5 6 5
split_gain=774.592 354.098 261.068 134.11 70.5855 60.5598 46.2003 45.7372 20.4034 18.2153 12.945 11.8852 11.2363 11.2142 9.8201 7.85925 8.8974 6.30965 6.1579 5.46223 8.52637 5.15233 4.84413 5.5163 4.76568 4.73543 4.08359 4.03373 5.70341 3.93566
threshold=2.5000000000000004 1.0000000180025095e-35 1.0000000180025095e-35 1.5000000000000002 0.27570386757738813 3.5000000000000004 4.5000000000000009 0.26812236532848349 0.24919860088222268 0.15433970172622266 0.72000387287600642 0.64564528460196302 1.0000000180025095e-35 0.17928463049110785 0.63467445260546507 1.5000000000000002 0.43077368112163855 0.065133534234291413 5.5000000000000009 0.094946699878050461 24.478952505840066 11.754958191710061 0.10571396408143426 3.3524607205489283 0.40118211694851463 46.563716492713532 12.700848274399297 0.13462370508974189 2.1960909948333991 0.43077368112163855
decision_type=2 2 2 2 2 2 2 2 2 2 2 2 2 2 2 2 2 2 2 2 2 2 2 2 2 2 2 2 2 2
left_child=1 15 6 4 12 8 9 19 17 -2 24 29 22 18 21 -1 -17 -4 -8 20 -5 -11 -3 -24 -6 26 -18 28 -14 -9
right_child=2 3 5 7 10 -7 13 11 -10 14 -12 -13 27 -15 -16 16 25 -19 -20 -21 -22 -23 23 -25 -26 -27 -28 -29 -30 -31
leaf_value=-0.074977315208090964 -0.054624740753990181 -0.050936678595041973 0.014319316999867127 0.050300793586085628 -0.012141730317199152 0.061719819864181041 -0.023572695851277383 0.016756234377627625 0.047887070008560573 -0.032375288036299167 0.036103156227098976 0.059114421752828716 -0.0016621371168404472 0.052272473238620436 0.036203537479531381 -0.065408558981207413 0.021184088201045864 0.031033278234945661 0.041676104104539334 0.0031641401291622241 -0.011354049587561414 -0.0059071637738371706 -0.003549636978354124 -0.039485968017025072 0.00073685230609395549 -0.049834111170616521 -0.041465651200277308 -0.021210869423943752 -0.033897225765493158 0.030728140905662973
leaf_weight=174.90868881344795 54.645353406667709 90.326990202069283 82.909407690167427 5.8192157745361319 136.75183196365833 390.07726806402206 10.969403430819513 128.8058824390173 172.36493040621281 52.089808583259583 20.122948855161667 24.344352930784225 14.67804980278015 22.624833896756172 7.6624122411012641 108.18009425699711 5.7472414672374743 177.03980982303619 5.3941374421119681 209.10920330882072 154.13034427165985 28.416921243071556 12.375819638371466 77.873951554298401 151.31980821490288 17.091538712382317 4.7513175457715988 149.78027974069118 210.66657504439354 82.802397310733795
leaf_count=766 230 393 388 28 618 1957 45 605 861 219 96 123 67 93 33 468 24 845 22 968 704 119 55 338 692 72 20 667 929 404
internal_value=0.000338508 -0.0194739 0.0354492 -0.00921669 -0.0218598 0.0474359 -0.018773 0.00883641 0.0345475 -0.0319426 -0.00266845 0.0260297 -0.0325034 0.0294674 -0.0178847 -0.0679708 -0.0589445 0.0257025 -0.00206384 -0.00215587 -0.00911095 -0.0230327 -0.0427509 -0.0345581 -0.0053768 -0.0335993 -0.00716921 -0.0275705 -0.0317976 0.0222234
internal_weight=2783.78 1779.59 1004.19 1468.91 863.896 822.391 181.803 605.011 432.314 142.814 308.195 235.953 555.702 38.9884 88.1691 310.679 135.77 259.949 16.3635 369.059 159.95 80.5067 180.577 90.2498 288.072 27.5901 10.4986 375.125 225.345 211.608
internal_count=12849 8037 4812 6687 3855 4051 761 2832 2094 601 1406 1132 2449 160 371 1350 584 1233 67 1700 732 338 786 393 1310 116 44 1663 996 1009
is_linear=0
shrinkage=0.05


Tree=14
num_leaves=31
num_cat=0
split_feature=3 4 2 2 2 4 3 4 4 4 3 2 3 4 4 2 2 4 3 2 3 2 4 3 3 3 2 4 2 3
split_gain=1270.09 529.33 346.27 321.698 297.625 342.6 419.892 125.986 93.354 69.3126 56.8761 53.3555 83.8199 57.2335 47.3033 50.2115 46.7358 45.4339 69.6448 76.6924 30.5848 26.8454 46.085 26.7769 24.9132 23.5186 23.1692 19.1805 23.5701 25.1349
threshold=1.5000000000000002 2.5000000000000004 0.23058243149182253 0.41068186103127707 0.24598067912358018 2.5000000000000004 2.5000000000000004 4.5000000000000009 1.5000000000000002 1.0000000180025095e-35 3.5000000000000004 0.36577587612668616 1.0000000180025095e-35 4.5000000000000009 1.5000000000000002 0.18521105894830206 0.57182572012883692 1.0000000180025095e-35 2.5000000000000004 0.38901162914364229 1.0000000180025095e-35 0.30026089020397168 1.5000000000000002 1.0000000180025095e-35 1.0000000180025095e-35 1.0000000180025095e-35 0.49509509519202005 3.5000000000000004 0.16860834296255686 1.0000000180025095e-35
decision_type=2 2 2 2 2 2 2 2 2 2 2 2 2 2 2 2 2 2 2 2 2 2 2 2 2 2 2 2 2 2
left_child=1 3 7 21 5 6 14 27 16 10 -8 12 13 -4 -2 -16 25 18 19 -6 26 -1 -23 -9 -24 -5 -10 -3 -29 -30
right_child=4 2 11 8 17 -7 9 23 20 -11 -12 -13 -14 -15 15 -17 -18 -19 -20 -21 -22 22 24 -25 -26 -27 -28 28 29 -31
leaf_value=-0.079838623410439846 -0.082125742161229684 -0.074177987235693299 -0.051011068561151701 -0.083027867581069462 -0.069570592047781113 0.057857879691226403 -0.069393075281267744 -0.01867251040044075 -0.044647335000397192 0.049631519382705602 0.053027983303873552 0.065071452269770999 0.051077050770421878 0.07917778750207391 -0.063067320484569603 0.0096497024635158746 0.030336161126236549 0.060758900377893804 0.067479528764469429 0.052504721444405988 0.069820142712666372 -0.078716946603175256 -0.06530243088244729 0.058610035424321499 -0.0071864340592242802 -0.027172685075146797 0.043629816372752227 -0.061829955609582023 -0.071677093497293023 0.049529799038057959
leaf_weight=495.08532911539078 131.54216124117374 110.74217128753662 45.183110982179642 29.532979294657707 29.088407427072525 239.19807648658752 25.218165323138237 17.859717607498169 13.279187992215158 166.93293677270412 15.209950566291807 137.78663542866707 92.07176448404789 10.381629809737204 65.928544208407402 37.097488641738892 25.350951731204987 622.44581960141659 48.905663803219795 23.069385275244713 45.05254502594471 109.25804561376572 29.220688059926033 30.094864815473557 49.986418500542641 52.081703424453735 16.882658436894417 35.704695656895638 6.5648086518049249 12.274643212556839
leaf_count=2135 543 464 186 123 120 1164 105 72 54 795 71 653 413 42 269 163 108 3385 245 106 219 459 125 127 208 218 70 147 27 52
internal_value=4.61183e-06 -0.0343539 0.0066807 -0.05799 0.0333788 0.0096579 -0.0164308 -0.0415233 0.00104881 0.0354055 -0.0233356 0.0426941 0.0218097 -0.0266868 -0.0622546 -0.0368835 -0.0289645 0.0557101 0.0246151 -0.0155767 0.0437321 -0.0737251 -0.0576651 0.0298277 -0.0286263 -0.0473844 0.00476453 -0.0622244 -0.0379547 0.00729396
internal_weight=2769.03 1364.39 498.664 865.731 1404.64 681.127 441.929 213.241 182.18 207.361 40.4281 285.423 147.637 55.5647 234.568 103.026 106.966 723.509 101.063 52.1578 75.2144 683.55 188.465 47.9546 79.2071 81.6147 30.1618 165.286 54.5441 18.8395
internal_count=12868 5902 2183 3719 6966 3110 1946 889 792 971 176 1294 641 228 975 432 449 3856 471 226 343 2927 792 199 333 341 124 690 226 79
is_linear=0
shrinkage=0.05


Tree=15
num_leaves=31
num_cat=0
split_feature=3 2 2 3 10 10 2 10 3 10 3 2 2 10 2 3 3 2 2 3 2 3 2 2 3 2 2 3 10 6
split_gain=1139.32 455.796 274.482 303.111 104.621 99.0588 94.8337 59.8244 47.0358 45.3629 67.897 86.1334 44.3856 43.9944 42.7607 41.2578 34.2179 19.9656 13.8256 13.2852 12.7481 14.2702 10.3352 9.98711 14.8827 9.83731 9.63135 9.56667 9.22302 7.26491
threshold=1.5000000000000002 0.38901162914364229 0.24598067912358018 2.5000000000000004 1.0000000180025095e-35 1.0000000180025095e-35 0.27611689696313174 1.0000000180025095e-35 3.5000000000000004 1.0000000180025095e-35 2.5000000000000004 0.40293275792671962 0.10212767890979631 1.0000000180025095e-35 0.49509509519202005 1.0000000180025095e-35 1.0000000180025095e-35 0.6317138776648844 0.20102485108178411 1.0000000180025095e-35 0.070669023830054453 3.5000000000000004 0.20102485108178411 0.34213378310422615 2.5000000000000004 0.31745264023003567 0.18521105894830206 1.0000000180025095e-35 1.0000000180025095e-35 20.438849627013184
decision_type=2 2 2 2 2 2 2 2 2 2 2 2 2 2 2 2 2 2 2 2 2 2 2 2 2 2 2 2 2 2
left_child=1 6 3 7 17 8 18 -2 22 10 11 -4 -9 -8 16 -15 -6 -3 -1 -16 21 -7 -5 24 -11 -17 -14 -20 -29 -18
right_child=2 4 9 5 14 20 13 12 -10 23 -12 -13 26 15 19 25 29 -19 27 -21 -22 -23 -24 -25 -26 -27 -28 28 -30 -31
leaf_value=-0.064024857997801984 -0.08199846854784229 -0.066414796657488201 -0.06664094214415521 -0.079357816749608678 -0.016520152950657268 0.0062063023099713684 -0.077687478722562667 -0.047433684646843881 0.049270011286329816 0.04036692156755893 0.066256351443603145 0.064997426478152168 -0.012922965891267244 -0.045109188224457787 0.034151480724584758 -0.019189738598965687 0.035260317105799098 0.042587992184432683 -0.063602640261654228 0.067658796023055232 0.060079437530414961 0.068463302148407748 -0.0035600971528354573 0.064536618208683547 0.064731765357909865 0.0047926163387423462 0.0076183079959242922 -0.080801942226192636 -0.038574512690490302 -0.013561361243734353
leaf_weight=464.33442366123199 37.697894901037216 37.335919871926308 32.481291949748993 22.372625410556797 59.60220243036747 24.746634155511856 36.273036554455757 80.336237460374832 13.581326290965078 136.63820280134678 47.339824676513672 20.126153290271759 137.21224866807461 98.424956783652306 52.693120643496513 71.164067819714546 92.739952713251114 4.7335541248321524 78.07498998939991 67.446661725640297 236.62432397902012 14.655299529433249 5.6286922246217719 357.0723866969347 115.78509487211704 107.12861488759518 97.696355774998665 14.17582620680332 147.2245808839798 8.3019342720508558
leaf_count=2032 161 156 134 91 250 113 158 334 65 682 244 95 588 423 226 305 436 20 349 347 1213 75 25 2070 666 465 439 61 619 38
internal_value=0.000470471 -0.0323753 0.032356 0.00941932 0.0193824 0.0448566 -0.0488093 -0.0224703 -0.0270865 0.0540354 0.0228133 -0.0162797 -0.0153517 -0.0259114 0.0303996 -0.0191244 0.0135257 -0.0541501 -0.0589922 0.0529625 0.0556947 0.0293624 -0.0641213 0.0591553 0.0515429 -0.00477974 -0.00438004 -0.049234 -0.0422834 0.031249
internal_weight=2719.65 1339.65 1379.99 670.552 322.853 317.609 1016.8 352.943 41.5826 709.443 99.9473 52.6074 315.245 312.991 280.784 276.718 160.644 42.0695 703.81 120.14 276.026 39.4019 28.0013 609.496 252.423 178.293 234.909 239.475 161.4 101.042
internal_count=12880 5885 6995 3104 1473 1582 4412 1522 181 3891 473 229 1361 1351 1297 1193 724 176 3061 573 1401 188 116 3418 1348 770 1027 1029 680 474
is_linear=0
shrinkage=0.05


Tree=16
num_leaves=31
num_cat=0
split_feature=4 2 2 4 4 2 2 5 4 5 2 5 5 2 4 5 5 2 5 2 2 5 4 2 2 4 2 2 2 5
split_gain=645.015 457.364 171.919 90.9925 71.9383 62.243 55.1668 48.9938 25.2686 24.3155 21.7587 25.1371 21.6938 21.2694 22.6316 18.5717 17.4066 16.9957 15.9625 14.6083 13.6925 13.4503 13.098 12.7061 12.6961 11.341 10.2129 8.38059 8.30439 7.99389
threshold=2.5000000000000004 0.34213378310422615 0.23058243149182253 3.5000000000000004 1.5000000000000002 0.49509509519202005 0.21080659934540982 0.26812236532848349 1.5000000000000002 0.23133629026454425 0.18386199644344689 0.28099946685282651 0.26147292683597206 0.36577587612668616 3.5000000000000004 0.33038840146984633 0.062430015233318009 0.11823633281553451 0.37981952674368397 0.087345122371102216 0.13004094669221028 0.24236942401687916 1.0000000180025095e-35 0.15583942740345857 0.38901162914364229 1.5000000000000002 0.31745264023003567 0.39554803714570214 0.59381097641690272 0.42390271255333128
decision_type=2 2 2 2 2 2 2 2 2 2 2 2 2 2 2 2 2 2 2 2 2 2 2 2 2 2 2 2 2 2
left_child=1 4 3 9 10 7 12 8 -3 20 -1 -12 -6 14 16 17 26 -5 -8 -14 -2 22 -7 -11 -10 27 -4 29 -24 -9
right_child=2 5 13 15 6 21 18 25 24 23 11 -13 19 -15 -16 -17 -18 -19 -20 -21 -22 -23 28 -25 -26 -27 -28 -29 -30 -31
leaf_value=-0.056453810463723768 -0.045348920981260303 -0.019262547767387617 -0.034405022820367448 0.0023383886813584539 -0.047087542803083075 -0.00052923701860768072 -0.0095361868991352561 -0.026768033355169304 -0.0085014821927564335 -0.0098891781026294815 -0.047894258407918756 -0.020316607608955581 -0.049458279057292436 0.062792410487233705 0.056877773894645378 0.055738169982241105 0.036397046078844204 0.037045248059013963 0.023359258541604144 -0.0080164367017585697 -0.012538673262587433 0.06035826027480156 0.029066431241680481 0.027223315739962031 0.029590841866494379 0.047994290815912964 0.03429309185140602 0.031879028705188529 0.061695993556619859 0.022216320119147311
leaf_weight=308.71746507287025 55.764444574713707 145.61718505620956 15.601613894104959 58.06175585091114 170.80519911646843 23.689460277557373 159.53574815392494 15.38003249466419 36.518383428454399 51.154473051428795 241.01222352683544 125.74031287431717 28.654545873403549 248.50082610547543 138.30651746690273 63.56735634803772 112.99558340013027 89.872301787137985 47.965792506933212 82.456885308027267 73.988446414470673 70.969606906175613 50.506081312894821 41.996889784932137 54.549112737178802 57.229596987366676 8.2817921191453916 51.456110492348671 31.762600317597389 18.166725233197212
leaf_count=1393 245 673 73 256 768 110 752 70 176 231 1084 573 128 1408 726 306 575 421 236 376 335 380 254 207 279 301 41 256 166 87
internal_value=1.79405e-05 -0.0182896 0.0328983 0.00964326 -0.0360961 0.0190277 -0.0214989 0.00759455 -0.00634289 -0.0126474 -0.0466727 -0.0384393 -0.0359007 0.0521886 0.0426131 0.0331357 0.0281997 0.0234234 -0.00193212 -0.0187039 -0.0266397 0.0435134 0.0322308 0.00684283 0.0143157 0.0307874 -0.0105833 0.0192026 0.0416642 -0.000241318
internal_weight=2678.83 1720.73 958.092 434.406 1164.89 555.845 489.418 378.917 236.685 222.904 675.47 366.753 281.917 523.686 275.186 211.501 136.879 147.934 207.502 111.111 129.753 176.928 105.958 93.1514 91.0675 142.232 23.8834 85.0029 82.2687 33.5468
internal_count=12886 8062 4824 2001 5310 2752 2260 1842 1128 1018 3050 1657 1272 2823 1415 983 689 677 988 504 580 910 530 438 455 714 114 413 420 157
is_linear=0
shrinkage=0.05


Tree=17
num_leaves=31
num_cat=0
split_feature=3 2 3 2 2 10 10 5 10 5 10 2 2 5 2 10 3 2 3 3 5 5 2 5 3 3 5 5 2 5
split_gain=1066.09 388.726 232.472 282.289 110.275 84.9592 78.2831 66.4664 61.2286 69.4221 54.1606 57.9891 41.3151 36.5303 31.6289 48.6735 31.5639 30.9356 30.7043 27.1872 26.1822 21.9616 20.1886 21.814 19.291 17.7285 26.7603 13.3227 12.5506 16.9334
threshold=1.5000000000000002 0.42508743637700114 2.5000000000000004 0.27961661678064531 0.27797301967364024 1.0000000180025095e-35 1.0000000180025095e-35 0.33985786170132842 1.0000000180025095e-35 0.29082858739982892 1.0000000180025095e-35 0.40293275792671962 0.11432800701906232 0.36663954688244133 0.16319841049975659 1.0000000180025095e-35 3.5000000000000004 0.13960201763663768 1.0000000180025095e-35 1.0000000180025095e-35 0.31288539506827678 0.37981952674368397 0.57182572012883692 0.37288573760765625 1.0000000180025095e-35 3.5000000000000004 0.096843449408629267 0.078219571126290507 0.478995803507547 0.17743675805990702
decision_type=2 2 2 2 2 2 2 2 2 2 2 2 2 2 2 2 2 2 2 2 2 2 2 2 2 2 2 2 2 2
left_child=1 4 3 5 21 -2 20 17 -6 24 11 13 -9 -5 15 16 -4 -7 22 -11 -3 -1 23 -8 -10 26 -17 -26 29 -20
right_child=2 6 14 10 8 7 18 12 9 19 -12 -13 -14 -15 -16 25 -18 -19 28 -21 -22 -23 -24 -25 27 -27 -28 -29 -30 -31
leaf_value=-0.061992722047174924 -0.080047295814560673 -0.072928926223564505 -0.075356824876367093 -0.08677401605900284 -0.077490942205394112 -0.041276953564560404 -0.018340691780063947 -0.018755767732673751 -0.053814457971490037 -0.015376259622966329 0.05790748849287667 0.059147207345475329 0.051923001685441672 0.061372551824679072 0.061881003917373792 -0.0055425148956126328 0.044458853714232159 -0.006276592529326358 0.0018292151204688429 0.034852133133611678 0.022469561514572745 -0.041361671646455836 0.05257568448776815 0.044091561310636997 -0.04363518931321609 0.067496986690517527 0.051056067127247841 -0.011056918931321604 0.064265127865321015 0.060538136921661892
leaf_weight=517.98374374210835 44.427178472280502 24.888839319348335 14.599786534905435 18.896452471613888 45.413877233862877 101.48451991379261 48.856114625930786 30.474180445075035 70.568217530846596 43.343453288078308 256.56813582777977 21.151588439941406 64.308334827423096 5.3361791223287574 427.4161860793829 30.239815026521683 8.8158238679170591 167.05692373216152 24.071368739008904 71.188062012195587 10.115278363227842 171.76625436544418 24.315162643790245 19.606038391590118 46.871385589241982 63.384601831436157 67.504380434751511 94.960964873433113 75.319265261292458 25.07789172232151
leaf_count=2319 194 104 60 77 202 425 203 128 309 183 1459 103 314 23 2520 136 41 743 111 329 43 749 109 86 198 335 328 413 407 129
internal_value=0.0001199 -0.031766 0.0318293 0.0123569 -0.0450177 -0.0147793 0.02403 -0.00679835 -0.0230898 -0.0155329 0.0490013 -0.0013478 0.0291986 -0.0541512 0.0544118 0.0371126 -0.030247 -0.0195036 0.0352108 0.0158436 -0.0453612 -0.056855 0.0134385 -0.000461483 -0.0324519 0.0469014 0.0335458 -0.0218231 0.0514395 0.0317848
internal_weight=2636.01 1314.35 1321.66 709.703 1062.1 407.751 252.25 363.324 372.346 326.932 301.952 45.3842 94.7825 24.2326 611.961 184.544 23.4156 268.541 217.246 114.532 35.0041 689.75 92.7773 68.4622 212.401 161.129 97.7442 141.832 124.469 49.1493
internal_count=12780 5894 6886 3466 4702 1804 1192 1610 1634 1432 1662 203 442 100 3420 900 101 1168 1045 512 147 3068 398 289 920 799 464 611 647 240
is_linear=0
shrinkage=0.05


Tree=18
num_leaves=31
num_cat=0
split_feature=4 9 11 9 5 11 4 4 4 11 4 5 4 5 5 5 4 5 4 5 5 4 5 5 4 5 4 4 5 5
split_gain=599.422 278.107 222.87 197.73 111.763 72.5956 68.1748 45.7826 41.6621 39.6514 38.4021 27.5127 21.6422 21.2398 18.755 12.1095 14.5346 11.8928 11.0711 10.9177 9.57103 7.80121 9.41397 7.34272 5.84401 8.32979 5.17002 5.03814 5.04132 4.81561
threshold=2.5000000000000004 1.0000000180025095e-35 1.0000000180025095e-35 1.0000000180025095e-35 0.22239055223910484 1.0000000180025095e-35 3.5000000000000004 1.5000000000000002 1.5000000000000002 1.0000000180025095e-35 4.5000000000000009 0.1985429570324542 3.5000000000000004 0.42756421225746177 0.24919860088222268 0.33038840146984633 4.5000000000000009 0.16702447247679522 1.5000000000000002 0.43942758227603212 0.17090094198236014 3.5000000000000004 0.37615961565792466 0.70462586981855513 1.5000000000000002 0.3601606323906501 1.0000000180025095e-35 4.5000000000000009 0.18110382759681268 0.59739238364945135
decision_type=2 2 2 2 2 2 2 2 2 2 2 2 2 2 2 2 2 2 2 2 2 2 2 2 2 2 2 2 2 2
left_child=1 24 18 9 8 6 17 13 26 27 11 -11 14 -6 -7 16 -8 -5 -3 -20 -10 -13 -23 -15 -1 -26 -4 -2 -29 -9
right_child=3 2 4 5 7 12 15 29 20 10 -12 21 -14 23 -16 -17 -18 -19 19 -21 -22 22 -24 -25 25 -27 -28 28 -30 -31
leaf_value=-0.068961472749053829 -0.072645372087833615 -0.053240581207461113 -0.031199595251332209 -0.031086236677532811 -0.0033786334427256775 0.033534991929809098 0.01452717752053935 0.036470453581813438 -0.00034908162480128444 -0.043164342557495294 0.052206006968380715 -0.0079500181785565876 0.063534528010851285 0.01934793434041469 0.059311073358984535 0.073016564730694358 0.060910451056012532 0.0038374680006388151 -0.040712698839810935 -0.0025421319128407509 0.02537233163124037 -0.0018852487429029683 0.059152556564680783 0.054838607067596891 -0.062433724900336288 -0.033424975646916565 -0.018369419809289605 -0.066662658068920425 0.0018532514009145769 0.059833502246032205
leaf_weight=159.82930666208267 26.593144983053207 182.11926753818989 115.80449675023556 44.006271302700043 167.38813987374306 178.54196067154408 37.813945412635803 167.37144248187542 194.66141079366207 49.967066079378128 25.730016857385635 37.234425500035286 258.59862238168716 91.164304047822952 116.6953294724226 30.774406298995018 30.52251823246479 54.650523409247398 111.87175434827805 22.501135945320129 44.419575393199921 12.884408175945284 12.393369525671003 17.346718490123749 90.726021930575371 34.028244987130165 243.85811585187912 5.3174740225076658 5.4224973022937775 25.404025763273239
leaf_count=774 125 829 529 194 798 943 174 886 957 216 108 163 1527 449 679 149 139 246 503 103 230 54 54 89 426 150 1137 22 22 146
internal_value=0.000295611 -0.0176156 -0.00835875 0.0325287 0.00256711 0.0436878 0.0176836 0.0208539 -0.0117471 -0.0152501 -0.00289951 -0.0155051 0.0529736 0.00779114 0.0437232 0.0469728 0.0352443 -0.0117404 -0.0452079 -0.0343209 0.00442978 0.00660343 0.0280408 0.0250215 -0.0626312 -0.0545212 -0.0225005 -0.0609726 -0.0320697 0.0395492
internal_weight=2595.64 1668.49 1383.91 927.146 1067.42 751.604 197.768 468.675 598.744 175.542 138.209 112.479 553.836 275.899 295.237 99.1109 68.3365 98.6568 316.492 134.373 239.081 62.5122 25.2778 108.511 284.584 124.754 359.663 37.3331 10.74 192.775
internal_count=12821 8006 6656 4815 5221 4051 902 2368 2853 764 595 487 3149 1336 1622 462 313 440 1435 606 1187 271 108 538 1350 576 1666 169 44 1032
is_linear=0
shrinkage=0.05


Tree=19
num_leaves=31
num_cat=0
split_feature=4 2 2 4 2 4 2 4 4 2 2 2 4 2 8 4 2 8 8 2 8 8 8 8 2 4 4 4 7 2
split_gain=542.918 392.562 143.154 79.5574 58.2851 53.8193 43.822 24.2678 20.2775 18.4709 15.5791 15.5057 17.6098 14.9866 14.6739 13.886 12.353 11.1909 10.4289 8.84254 8.24027 7.34847 6.51253 6.41771 6.27625 5.88797 5.32122 5.20234 6.27103 5.1232
threshold=2.5000000000000004 0.34213378310422615 0.24110912908422946 3.5000000000000004 0.44050216060850872 1.5000000000000002 0.20102485108178411 1.5000000000000002 1.5000000000000002 0.15229076350421947 0.13004094669221028 0.36577587612668616 3.5000000000000004 0.62003224576276128 1.0000000180025095e-35 5.5000000000000009 0.11432800701906232 1.0000000180025095e-35 1.0000000180025095e-35 0.30026089020397168 1.0000000180025095e-35 1.0000000180025095e-35 1.0000000180025095e-35 1.0000000180025095e-35 0.24738759467324309 1.0000000180025095e-35 4.5000000000000009 1.0000000180025095e-35 14.517561569916593 0.40556221875781434
decision_type=2 2 2 2 2 2 2 2 2 2 2 2 2 2 2 2 2 2 2 2 2 2 2 2 2 2 2 2 2 2
left_child=1 5 3 10 7 9 23 17 13 -1 -2 12 -4 21 24 16 -5 25 -12 22 29 27 -8 -7 -11 -3 -14 28 -6 -9
right_child=2 4 11 15 8 6 19 20 -10 14 18 -13 26 -15 -16 -17 -18 -19 -20 -21 -22 -23 -24 -25 -26 -27 -28 -29 -30 -31
leaf_value=-0.054454193881163938 -0.024875683376119482 -0.029807908222320947 0.028520339857702061 0.010692807429848638 -0.03055101636090507 -0.037362208105735394 -0.013647920996273445 0.008521564090850902 0.052090740543069496 -0.046191673902436996 -0.0036449755892510997 0.060407591364063068 0.047384806425964446 0.058134545540226637 -0.01096216846924381 0.064467467605097875 0.037603585051652927 0.025114073391439801 0.038936756546627982 0.01260123658539947 0.058693709378192786 0.051230017717526159 0.018082505101097653 -0.01289831500527093 -0.033210782113496852 -0.0079118020369892319 0.069300979785682254 0.02110187030933891 0.011509289011348707 0.035784216130898765
leaf_weight=219.03666310012341 95.134074121713638 45.362658724188805 118.27334786951542 66.694457367062569 12.363756716251372 230.28388373553753 147.88456964492798 64.236855894327164 107.13719795644283 193.78711006045341 112.88516387343407 228.52033393085003 71.237249881029129 27.054701894521713 49.427188500761986 30.199575915932655 118.25770545005798 19.857839122414589 16.477982372045517 57.30506457388401 12.857817217707632 14.380139693617819 18.156429588794708 30.340312957763672 179.24934609234333 95.000979080796242 45.313899502158165 79.04642441868782 31.289981186389923 23.549980446696281
leaf_count=1035 430 210 623 303 57 1064 703 323 611 892 537 1400 397 142 233 147 588 102 87 286 73 78 95 142 829 456 256 398 150 130
internal_value=0.000549747 -0.0164431 0.0317433 0.0113058 0.0189434 -0.0331744 -0.0205863 0.0020689 0.0351705 -0.0426713 -0.00951633 0.0511356 0.0421125 0.0241261 -0.0365622 0.0330323 0.0278995 -0.0100179 0.00177899 -0.00433358 0.0213105 0.017414 -0.0101782 -0.0345143 -0.0399542 -0.0149882 0.0559056 0.0134509 -0.00040317 0.0158351
internal_weight=2560.6 1657.61 902.994 439.649 532.138 1125.47 483.97 260.866 271.272 641.5 224.497 463.345 234.824 164.135 422.464 215.152 184.952 160.221 129.363 223.346 100.645 137.08 166.041 260.624 373.036 140.364 116.551 122.7 43.6537 87.7868
internal_count=12777 8009 4768 2092 2730 5279 2290 1294 1436 2989 1054 2676 1276 825 1954 1038 891 768 624 1084 526 683 798 1206 1721 666 653 605 207 453
is_linear=0
shrinkage=0.05


Tree=20
num_leaves=31
num_cat=0
split_feature=4 2 9 9 2 9 2 4 4 2 4 2 2 4 2 4 4 2 2 8 8 4 4 8 8 4 2 2 2 4
split_gain=494.651 367.077 217.732 199.46 138.285 100.587 89.0087 71.3187 66.4718 52.6666 45.845 44.7363 29.6729 29.1701 23.5764 34.6766 23.3133 20.6802 15.0066 14.6414 13.8514 12.761 12.3734 11.6644 10.9767 10.4649 9.69269 9.24766 7.63715 7.63156
threshold=2.5000000000000004 0.34213378310422615 1.0000000180025095e-35 1.0000000180025095e-35 0.38180963568787896 1.0000000180025095e-35 0.22347841189791953 1.5000000000000002 3.5000000000000004 0.21676767849830503 5.5000000000000009 0.42508743637700114 0.49509509519202005 1.5000000000000002 0.28339486963412303 3.5000000000000004 1.0000000180025095e-35 0.18692610549611657 0.13004094669221028 1.0000000180025095e-35 1.0000000180025095e-35 1.0000000180025095e-35 4.5000000000000009 1.0000000180025095e-35 1.0000000180025095e-35 1.5000000000000002 0.57182572012883692 0.42508743637700114 0.11823633281553451 4.5000000000000009
decision_type=2 2 2 2 2 2 2 2 2 2 2 2 2 2 2 2 2 2 2 2 2 2 2 2 2 2 2 2 2 2
left_child=1 5 12 4 10 -1 8 17 18 -9 14 16 -3 -14 -2 -16 -4 -7 -5 -11 -20 26 28 25 -19 -18 -13 -6 -10 -17
right_child=3 2 11 6 27 7 -8 9 22 19 -12 21 13 -15 15 29 23 24 20 -21 -22 -23 -24 -25 -26 -27 -28 -29 -30 -31
leaf_value=-0.067983989687331034 -0.0668689075929884 -0.065816622782123857 -0.017747395639872973 -0.014518988791885668 0.017023105215374906 -0.048244731021057995 0.057860063384719301 -0.02504436485172544 0.017755707493883829 0.0067050392393448333 0.063188633581370723 0.014560284775446457 -0.049147680892340125 0.03624937002642032 -0.069864071720726159 0.011109654384313652 0.0071163266113117088 -0.032158015994585711 0.0080418634048669609 0.057116541892146315 0.068469606312221404 0.055243767717885889 0.06251108933673459 0.065544534991287026 -0.00075638052335754227 0.035216366147527801 0.063461100828819811 0.068094427543478095 0.046529325300518343 0.084718741376239984
leaf_weight=169.19861032068729 86.528754606842995 67.121786057949066 39.962406188249588 80.375813558697701 11.842942982912062 257.5773306787014 384.88365236669779 243.81290729343891 40.121453449130058 147.78009685873985 9.1029626578092557 38.995326682925224 22.78451856970787 17.821442231535912 15.847389861941336 11.595375388860704 70.081859797239304 260.6456361413002 84.60618956387043 15.958728283643721 10.680449098348616 180.09297417104244 66.048308461904526 16.035492181777954 31.156166419386864 62.843919232487679 13.691094592213629 35.235351830720901 54.234347701072693 5.0568097680807105
leaf_count=884 390 302 183 357 49 1181 2420 1105 183 717 37 189 95 76 66 47 337 1172 398 89 60 1060 329 96 148 333 71 162 283 21
internal_value=-0.000106626 -0.0163032 0.0180341 0.0298148 -0.0180349 -0.0324463 0.0414435 -0.0261627 0.0226423 -0.0103147 -0.0449603 0.0342405 -0.0454063 -0.011668 -0.0532312 -0.0169213 0.0161635 -0.0379195 0.00139302 0.0116184 0.0148151 0.0489118 0.0459129 0.0252609 -0.0288052 0.0204013 0.0272677 0.055247 0.0342944 0.0334627
internal_weight=2551.72 1655.56 529.431 896.16 175.21 1126.13 720.95 956.931 336.067 407.552 128.131 421.703 107.728 40.606 119.028 32.4996 188.924 549.379 175.662 163.739 95.2866 232.779 160.404 148.961 291.802 132.926 52.6864 47.0783 94.3558 16.6522
internal_count=12840 8038 2742 4802 772 5296 4030 4412 1610 1911 561 2269 473 171 524 134 949 2501 815 806 458 1320 795 766 1320 670 260 211 466 68
is_linear=0
shrinkage=0.05


Tree=21
num_leaves=31
num_cat=0
split_feature=3 4 2 3 4 2 4 2 2 4 3 4 2 4 2 2 3 4 4 2 4 3 3 2 2 4 2 4 3 3
split_gain=987.984 366.142 334.687 224.172 241.198 350.796 115.448 89.6956 59.7017 82.703 60.4373 49.7335 59.2923 49.1034 67.7448 36.4053 40.9164 34.5121 29.1417 24.1359 71.4713 70.3875 22.5788 21.8324 21.744 41.914 21.068 36.4293 19.0654 15.6975
threshold=1.5000000000000002 3.5000000000000004 0.40556221875781434 2.5000000000000004 2.5000000000000004 0.26581434168956569 1.5000000000000002 0.20690617793699342 0.30026089020397168 2.5000000000000004 1.0000000180025095e-35 1.0000000180025095e-35 0.39112299115263399 1.5000000000000002 0.19405765499794833 0.49509509519202005 1.0000000180025095e-35 4.5000000000000009 1.5000000000000002 0.14152578470189295 1.5000000000000002 3.5000000000000004 1.0000000180025095e-35 0.46792430303205146 0.10367433967457292 3.5000000000000004 0.324687309366744 1.5000000000000002 1.0000000180025095e-35 1.0000000180025095e-35
decision_type=2 2 2 2 2 2 2 2 2 2 2 2 2 2 2 2 2 2 2 2 2 2 2 2 2 2 2 2 2 2
left_child=1 2 8 4 5 13 15 17 -1 18 -11 12 -7 -2 -15 -4 -17 -3 -10 20 21 -5 23 -8 25 -6 27 -13 -19 -20
right_child=3 7 6 19 24 11 22 -9 9 10 -12 26 -14 14 -16 16 -18 28 29 -21 -22 -23 -24 -25 -26 -27 -28 -29 -30 -31
leaf_value=-0.067415128239628502 -0.068408682361048592 -0.041753552361602581 -0.057545255618697812 -0.053065061084702117 -0.031992753381124464 -0.056959427256583317 -0.026030820155497097 0.052067670210828192 -0.071554864251000772 -0.059588981145192038 0.059329335841633628 -0.015301848181264809 0.054799102881215082 -0.052774844463178129 0.029153779449298478 -0.051536875291048834 0.039643328551880297 -0.020806303462965567 -0.060741962408337749 0.059702793742239108 0.064112181318646086 0.061919412103747254 0.062283464138601419 0.041328566654778381 0.061703006566818375 0.077930253835157642 0.063194976178390636 0.068191046195705221 0.048485128344516765 -0.012274620602197498
leaf_weight=582.6658890247345 140.00809772312641 47.271158307790756 53.482995331287384 34.03034795820713 18.806653380393982 26.322825133800507 18.020276874303818 136.07522945851088 95.018453195691109 15.826947271823881 32.882252246141434 27.124692112207413 21.612048134207726 71.379021733999252 39.027228310704231 21.105924606323242 29.501763328909874 16.539674550294876 25.938201367855072 444.96519319713116 88.598003566265106 21.858134850859642 67.381396561861038 36.184395313262939 186.09745994210243 16.092607155442238 114.73715087771416 25.203752174973488 24.830618977546692 46.936292260885239
leaf_count=2764 613 202 232 143 76 110 75 692 425 66 160 118 107 298 180 88 136 68 120 2763 461 101 398 161 1143 71 674 132 107 199
internal_value=0.000370653 -0.0312285 -0.0439011 0.0313208 0.011899 -0.00852483 0.00986914 0.026572 -0.0590833 -0.0366706 0.0206895 0.0383228 -0.00657167 -0.0487472 -0.0238141 -0.0287814 0.00161665 -0.0125669 -0.0533119 0.0539374 0.0361821 -0.00809433 0.0429582 0.018935 0.0549112 0.0186945 0.051204 0.0249121 0.0207827 -0.0295256
internal_weight=2525.52 1249.66 1024.94 1275.86 686.412 465.415 225.677 224.717 799.268 216.602 48.7092 215 47.9349 250.414 110.406 104.091 50.6077 88.6415 167.893 589.452 144.486 55.8885 121.586 54.2047 220.997 34.8993 167.066 52.3284 41.3703 72.8745
internal_count=12883 5893 4824 6990 3522 2232 1090 1069 3734 970 226 1141 217 1091 478 456 224 377 744 3468 705 244 634 236 1290 147 924 250 175 319
is_linear=0
shrinkage=0.05


Tree=22
num_leaves=31
num_cat=0
split_feature=3 4 2 2 3 2 4 4 4 2 5 5 5 3 3 5 4 4 2 5 2 2 4 3 2 2 3 4 4 5
split_gain=919.62 351.577 230.897 202.332 199.506 224.023 301.821 113.008 63.5536 56.5924 50.1363 45.5889 43.1548 40.4574 38.1807 36.7517 36.5818 34.2362 39.6184 30.4315 51.5948 29.9403 80.37 63.0857 28.3659 27.5177 25.6825 26.2681 25.56 25.1402
threshold=1.5000000000000002 2.5000000000000004 0.28339486963412303 0.44050216060850872 2.5000000000000004 0.24598067912358018 2.5000000000000004 4.5000000000000009 1.0000000180025095e-35 0.3768737647132161 0.33985786170132842 0.3577712732436425 0.29369620919085099 1.0000000180025095e-35 1.0000000180025095e-35 0.43477418819638353 1.5000000000000002 1.5000000000000002 0.49509509519202005 0.42011578812862932 0.27611689696313174 0.14152578470189295 1.5000000000000002 3.5000000000000004 0.093583677835299459 0.17657698297592408 1.0000000180025095e-35 1.0000000180025095e-35 3.5000000000000004 0.42756421225746177
decision_type=2 2 2 2 2 2 2 2 2 2 2 2 2 2 2 2 2 2 2 2 2 2 2 2 2 2 2 2 2 2
left_child=1 3 7 19 5 6 10 11 9 15 -2 -3 13 -5 -13 -7 -12 18 -15 -1 -21 22 23 29 -18 28 -22 -28 -16 -6
right_child=4 2 -4 12 21 8 -8 -9 -10 -11 16 14 -14 17 25 -17 24 -19 -20 20 26 -23 -24 -25 -26 -27 27 -29 -30 -31
leaf_value=-0.068543468268435548 -0.066074911171980069 -0.058264663293823772 0.04579886303534654 -0.055970001115121362 -0.075129122407454438 -0.0815173694278713 0.047684678104624234 0.033500133960760417 0.051294210825521894 0.05064757585498756 -0.045463989313611494 -0.060097692050165186 0.047071902164949025 -0.080995597536426614 -0.058595271649521941 0.069421657791784691 -0.06824374512669111 0.064478891515935458 0.030464194350143237 -0.067580702285659419 -0.0517238713308798 0.058700415817774181 0.062601063516792663 0.056553440245474033 0.062064977159962037 0.073925468638737488 -0.070922856194257949 0.041712032682972792 0.064239081012626445 0.041082904510386917
leaf_weight=503.93038243055344 159.10456812381744 149.63980352878571 192.30420270562172 35.169327199459076 28.860118493437767 23.826459884643558 118.40514087677002 61.144414350390434 271.67795625329018 21.988718792796135 34.581339791417122 19.96563147008419 42.196913108229637 14.226835936307905 11.962187796831133 4.854555055499076 5.3163816183805492 20.155721098184586 18.135712027549744 77.167052447795868 18.244920760393143 434.48530914634466 83.489376455545425 19.298058062791824 19.474464163184166 16.333224147558212 6.3134640902280799 28.739912629127502 6.5562196373939505 5.548514872789382
leaf_count=2461 699 666 1014 151 121 100 575 270 1699 110 148 90 209 58 49 21 22 117 83 361 83 2799 449 91 89 78 26 131 27 24
internal_value=0.000149423 -0.0305734 0.00407232 -0.0513308 0.0306545 0.0119092 -0.0166024 -0.0261391 0.0417063 -0.00970172 -0.0514432 -0.0439746 0.00552536 -0.0144676 -0.00496576 -0.0559694 -0.0122336 0.0133248 -0.0185344 -0.0629714 -0.0414491 0.0522705 0.0319077 -0.0158065 0.0341204 0.026618 -0.00361487 0.0214254 -0.0151072 -0.0563895
internal_weight=2453.1 1222.19 457.906 764.28 1230.91 659.23 336.882 265.601 322.348 50.6697 218.477 204.457 129.885 87.6876 54.8173 28.681 59.3722 52.5183 32.3625 634.396 130.465 571.681 137.196 53.7067 24.7908 34.8516 53.2983 35.0534 18.5184 34.4086
internal_count=12821 5874 2194 3680 6947 3463 1533 1180 1930 231 958 910 618 409 244 121 259 258 141 3062 601 3484 685 236 111 154 240 157 76 145
is_linear=0
shrinkage=0.05


Tree=23
num_leaves=31
num_cat=0
split_feature=4 2 9 9 2 9 2 4 4 4 2 2 5 4 2 5 5 5 5 5 4 4 2 5 5 2 4 2 5 2
split_gain=399.19 269.37 169.187 139.213 122.395 96.8643 77.812 60.3048 55.8495 48.6928 44.0231 36.0589 37.1877 31.8991 26.8413 22.2559 21.2831 20.7731 19.9449 19.3713 28.3526 18.2733 34.6702 25.4446 21.988 16.9121 16.7783 14.4214 13.5174 13.3968
threshold=2.5000000000000004 0.3527248802401553 1.0000000180025095e-35 1.0000000180025095e-35 0.38180963568787896 1.0000000180025095e-35 0.22024397097590923 3.5000000000000004 1.5000000000000002 5.5000000000000009 0.22347841189791953 0.46792430303205146 0.29082858739982892 1.5000000000000002 0.55157826672818155 0.28099946685282651 0.25887825912474277 0.3577712732436425 0.34279197867386374 0.43077368112163855 1.5000000000000002 3.5000000000000004 0.281486611229876 0.17090094198236014 0.50407136219167192 0.19405765499794833 1.5000000000000002 0.15086386962173678 0.23133629026454425 0.10737311470816116
decision_type=2 2 2 2 2 2 2 2 2 2 2 2 2 2 2 2 2 2 2 2 2 2 2 2 2 2 2 2 2 2
left_child=1 5 14 4 9 -1 7 17 15 21 16 12 13 -4 19 -7 -10 29 -12 -3 -21 -2 24 -24 -23 -17 -16 -18 -9 -5
right_child=3 2 11 6 -6 8 -8 28 10 -11 18 -13 -14 -15 26 25 27 -19 -20 20 -22 22 23 -25 -26 -27 -28 -29 -30 -31
leaf_value=-0.064520186525150278 -0.069200518335272812 -0.069443173532914293 -0.010251085663868257 -0.033280874648703211 0.056690854544920656 -0.040186093440277536 0.054481034812882814 0.030799409044885637 -0.033199486781643299 0.065734578503903893 0.0023305281961186588 0.051694582271583134 0.050158379590417579 0.037876848744647473 -0.029155156506315977 -0.033386196618255266 -0.018843945870898549 0.031064286814062998 0.043321965389397803 -0.07350821379783197 0.0591036335610923 -0.070048870974767072 -0.045200239274167081 0.082406802193953799 0.029772762825612944 -0.0039473394543013546 0.060462484959107471 0.01973238012657489 0.061572873838618827 0.0012716458388642472
leaf_weight=157.01982842385769 54.60272915661335 58.550958007574081 101.40383796393871 41.180952042341232 46.12739434838295 346.60809260606766 352.57826513051987 83.776455074548721 146.67207489907742 10.170197516679762 114.07160960137844 147.47862759232521 69.560191385447979 52.127507865428925 12.902891293168068 100.39802086353302 60.354423254728317 41.111048117280006 40.108400791883469 8.1036101877689362 8.0191759467124939 33.601957470178604 6.4092996120452908 10.003875046968458 6.6002918779849997 94.900878325104713 8.7744080275297165 40.47444549202919 62.162952534854412 88.001166835427284
leaf_count=907 266 277 492 187 216 1651 2428 426 686 42 579 931 418 298 53 473 285 214 219 36 34 149 26 42 27 446 39 194 339 421
internal_value=0.000225056 -0.0146578 0.0171645 0.02812 -0.0126411 -0.028158 0.0383294 0.0203213 -0.0221071 -0.0389872 -0.00797816 0.0325115 0.0198302 0.00608948 -0.041861 -0.03258 -0.0210427 0.000108364 0.012994 -0.0560797 -0.00754953 -0.0485633 -0.0286598 0.0325766 -0.0536604 -0.0190811 0.00711974 -0.00335874 0.0439074 -0.00974308
internal_weight=2403.86 1567.53 466.921 836.327 167.516 1100.61 668.811 316.233 943.588 121.388 401.681 370.57 223.092 153.531 96.351 541.907 247.501 170.293 154.18 74.6737 16.1228 111.218 56.6154 16.4132 40.2022 195.299 21.6773 100.829 145.939 129.182
internal_count=12801 8018 2578 4783 768 5440 4015 1587 4533 552 1963 2139 1208 790 439 2570 1165 822 798 347 70 510 244 68 176 919 92 479 765 608
is_linear=0
shrinkage=0.05


Tree=24
num_leaves=31
num_cat=0
split_feature=3 4 3 4 11 11 4 11 4 4 8 8 3 4 4 11 4 11 3 3 8 4 4 8 3 8 4 8 11 4
split_gain=868.043 349.232 193.759 202.772 126.588 84.848 86.6301 68.6584 54.8813 41.7479 40.6595 32.9518 29.3648 26.7467 22.8511 26.5982 22.5774 26.7239 22.4091 21.1748 20.1848 16.4828 15.011 14.998 13.5259 10.6904 9.08702 8.97206 8.71338 28.6863
threshold=1.5000000000000002 2.5000000000000004 2.5000000000000004 1.5000000000000002 1.0000000180025095e-35 1.0000000180025095e-35 3.5000000000000004 1.0000000180025095e-35 3.5000000000000004 4.5000000000000009 1.0000000180025095e-35 1.0000000180025095e-35 1.0000000180025095e-35 2.5000000000000004 1.5000000000000002 1.0000000180025095e-35 1.0000000180025095e-35 1.0000000180025095e-35 3.5000000000000004 1.0000000180025095e-35 1.0000000180025095e-35 4.5000000000000009 2.5000000000000004 1.0000000180025095e-35 1.0000000180025095e-35 1.0000000180025095e-35 1.0000000180025095e-35 1.0000000180025095e-35 1.0000000180025095e-35 1.5000000000000002
decision_type=2 2 2 2 2 2 2 2 2 2 2 2 2 2 2 2 2 2 2 2 2 2 2 2 2 2 2 2 2 2
left_child=1 14 3 7 9 6 11 -2 19 25 26 13 21 -5 27 -16 17 18 -4 -6 -17 -10 -7 -21 -11 -3 -9 -1 29 -18
right_child=2 4 16 5 8 22 -8 10 12 24 -12 -13 -14 -15 15 20 28 -19 -20 23 -22 -23 -24 -25 -26 -27 -28 -29 -30 -31
leaf_value=-0.061485555527822561 -0.070152233671632869 -0.068518959298553714 -0.061573842736395483 -0.067415860300910624 -0.0228002990503882 0.03813971236720512 0.071422986594587831 -0.031679503476306846 -0.0028159517402101403 -0.037378773717878157 0.059322208985228699 0.064250808383196759 0.059726767133063352 -0.0055241608990687962 -0.068078610784846866 -0.038613105851898734 0.012202297642581628 0.045321340054106429 0.040783723540307487 0.007367109023117155 0.0035882393913546878 0.047550598550209537 0.061624497019253682 0.065770827369973903 0.038263382780225577 -0.012851126150499589 -0.007997033668338106 -0.040642315561304175 0.060723477379143714 0.061530821109091582
leaf_weight=359.05964170396328 57.37887467443943 67.405904486775398 12.879773333668711 39.863518595695496 61.1041589230299 132.67740772664547 29.280670657753944 59.677445024251938 42.197095632553101 9.081988066434862 20.061141945421696 8.4300269931554777 92.662341713905334 31.054733097553253 69.446412727236748 216.16163422167301 43.383305475115776 59.98681915551424 9.1429668366909009 102.0773349404335 32.608483836054802 26.410449862480164 139.66907349973917 12.318990729749201 16.92050576210022 9.8897070139646512 126.07736757397652 60.300757005810738 338.84231102466583 91.916454903781414
leaf_count=1830 281 315 58 173 289 746 143 279 187 38 108 38 530 128 369 1037 191 327 42 507 160 118 995 77 73 43 605 288 2393 514
internal_value=0.000708212 -0.0297903 0.0306306 0.0119647 0.00545999 0.0352812 -0.00208081 -0.0217861 0.020312 -0.0429603 -0.0083022 -0.0292048 0.0413681 -0.0403138 -0.0508221 -0.0407191 0.0522506 0.0280273 -0.019079 0.000963256 -0.0330814 0.0165726 0.0501836 0.0136564 0.0118436 -0.0613965 -0.0156055 -0.0584885 0.0564404 0.0457138
internal_weight=2377.97 1177.65 1200.32 644.17 440.068 380.975 108.629 263.195 336.77 103.298 205.816 79.3483 161.27 70.9183 737.577 318.217 556.152 82.0096 22.0227 175.5 248.77 68.6075 272.346 114.396 26.0025 77.2956 185.755 419.36 474.142 135.3
internal_count=12882 5861 7021 3496 2177 2223 482 1273 1708 469 992 339 835 301 3684 1566 3525 427 100 873 1197 305 1741 584 111 358 884 2118 3098 705
is_linear=0
shrinkage=0.05


Tree=25
num_leaves=31
num_cat=0
split_feature=4 2 9 9 2 9 2 4 4 2 2 4 4 2 8 2 4 8 2 8 8 4 4 2 4 4 2 8 4 2
split_gain=341.367 262.113 138.453 123.456 108.095 86.5335 84.0497 66.7702 48.1798 46.9612 37.1787 36.7508 29.4126 24.4693 18.1021 17.4719 16.879 16.1869 16.0757 10.9094 10.6743 17.4318 10.0725 9.26925 8.89906 8.0383 8.54589 7.88711 7.83664 7.26685
threshold=2.5000000000000004 0.34659078292848911 1.0000000180025095e-35 1.0000000180025095e-35 0.37247737276071863 1.0000000180025095e-35 0.23058243149182253 3.5000000000000004 4.5000000000000009 0.19954128915023023 0.49509509519202005 1.5000000000000002 1.5000000000000002 0.55157826672818155 1.0000000180025095e-35 0.10030303976464766 1.5000000000000002 1.0000000180025095e-35 0.13004094669221028 1.0000000180025095e-35 1.0000000180025095e-35 1.5000000000000002 1.0000000180025095e-35 0.40556221875781434 4.5000000000000009 5.5000000000000009 0.2623288386362625 1.0000000180025095e-35 1.0000000180025095e-35 0.42508743637700114
decision_type=2 2 2 2 2 2 2 2 2 2 2 2 2 2 2 2 2 2 2 2 2 2 2 2 2 2 2 2 2 2
left_child=1 5 13 4 8 -1 7 18 -2 22 12 -11 14 20 28 -10 -15 -13 -5 -20 -3 -22 -7 -14 -9 26 -17 -24 -4 -6
right_child=3 2 10 6 29 9 -8 24 15 11 -12 17 23 16 -16 25 -18 -19 19 -21 21 -23 27 -25 -26 -27 -28 -29 -30 -31
leaf_value=-0.063284291415478325 -0.056891354079464607 -0.059703690250116875 -0.013845963538503002 -0.020497615881935209 0.019512236417879591 -0.049230480464922476 0.054728464397358872 0.032813028871262369 -0.064843160486272727 -0.021850456995992671 0.054806894770884906 0.0024297772900388325 0.028325366398563236 -0.02703505761743788 0.056967109856254354 -0.01667049518779682 0.06071978207822798 0.051933018474004999 0.0048511770570149179 0.060854188352147336 -0.061791950915127451 0.063656337493822476 -0.032014537189994412 0.059782202068644069 0.057760674124335255 0.075154629454586869 0.068726777468301276 -0.0099183753926956192 0.010522458652701979 0.062174717222601462
leaf_weight=144.33878915011883 86.840791940689087 59.647251263260841 49.064703971147537 74.254065543413162 13.95388914644718 76.795030474662781 322.30180433392525 88.389410376548767 4.9685968756675747 262.64018613100052 115.17211750894785 161.08293080329895 50.001562513411045 13.61576434969902 17.012173175811768 8.2745066732168215 9.1698505878448486 18.399666793644428 84.25604585558176 9.6967563703656179 6.2920810580253583 4.9459221810102463 343.46121647953987 44.048339113593102 60.017783045768738 9.0335729420185071 4.5353633016347876 45.766778618097305 100.71818651258945 35.0616105645895
leaf_count=891 421 293 235 345 59 399 2403 479 21 1252 769 818 286 56 102 34 41 111 425 62 29 21 1663 308 339 38 20 217 519 174
internal_value=0.000444761 -0.0134621 0.0175968 0.0268532 -0.0120354 -0.0273226 0.0367542 0.0184571 -0.0388023 -0.0216069 0.031146 -0.00993358 0.0206989 -0.036793 0.0080913 0.0197857 0.00828103 0.0075046 -0.00311047 0.0106312 -0.0512818 -0.0065813 -0.0326815 0.0430582 0.0429022 0.0390358 0.0135646 -0.0294164 0.00254004 0.0500294
internal_weight=2323.76 1522.17 469.688 801.584 162.668 1052.48 638.916 316.614 113.653 908.146 376.017 442.123 260.845 93.6709 166.795 26.812 22.7856 179.483 168.207 93.9528 70.8853 11.238 466.023 94.0499 148.407 21.8434 12.8099 389.228 149.783 49.0155
internal_count=12830 8010 2659 4820 767 5351 4053 1650 534 4460 2219 2181 1450 440 856 113 97 929 832 487 343 50 2279 594 818 92 54 1880 754 233
is_linear=0
shrinkage=0.05


Tree=26
num_leaves=31
num_cat=0
split_feature=3 4 2 3 2 4 4 2 2 4 3 4 2 4 2 4 2 2 4 3 2 4 3 4 3 3 2 4 3 2
split_gain=798.362 295.069 272.984 173.292 191.519 233.761 96.012 70.2972 48.1777 69.2878 45.0137 43.2936 46.1133 40.1395 52.4859 31.6153 28.1633 24.7953 62.766 62.1642 23.6838 43.6535 23.2932 21.8555 19.9504 17.9351 17.3032 21.7105 10.645 16.7099
threshold=1.5000000000000002 3.5000000000000004 0.40556221875781434 2.5000000000000004 0.26738740300454983 2.5000000000000004 1.5000000000000002 0.20690617793699342 0.30026089020397168 1.5000000000000002 1.0000000180025095e-35 1.0000000180025095e-35 0.40293275792671962 1.5000000000000002 0.17853651042786459 2.5000000000000004 0.50276006794630368 0.14460107623066393 1.5000000000000002 3.5000000000000004 0.13004094669221028 3.5000000000000004 1.0000000180025095e-35 4.5000000000000009 1.0000000180025095e-35 1.0000000180025095e-35 0.57182572012883692 2.5000000000000004 1.0000000180025095e-35 0.281486611229876
decision_type=2 2 2 2 2 2 2 2 2 2 2 2 2 2 2 2 2 2 2 2 2 2 2 2 2 2 2 2 2 2
left_child=1 2 8 4 5 13 16 23 -1 -10 -11 12 -6 -2 -15 -12 -4 18 19 -5 21 -7 -18 -3 26 -25 27 -8 29 -9
right_child=3 7 6 17 11 20 24 28 9 10 15 -13 -14 14 -16 -17 22 -19 -20 -21 -22 -23 -24 25 -26 -27 -28 -29 -30 -31
leaf_value=-0.063380501737116485 -0.060978851420115734 -0.033745998400272648 -0.050220141574551902 -0.043375605650993583 -0.046238123857015485 -0.028241093407370851 -0.028377292440456975 -0.015269991812200243 -0.067364180045009492 -0.052900724086014921 -0.011001503877935897 0.05291746630383555 0.05710260028790283 -0.051471482974768494 0.01949992103222551 0.056194893426008918 -0.038324184410401134 0.057404445372673245 0.061124704883643445 0.062515055992232102 0.063218882231665788 0.070355496545853755 0.0335713841830345 -0.023518770340165661 0.059746488590987926 0.045880838717886042 0.070457888359971993 0.046002745803246314 0.061735465485361435 0.048710055317856299
leaf_weight=529.12365218997002 125.36020152270794 45.558899581432343 56.394342169165611 38.966543331742287 24.905728191137314 24.522482961416245 23.948601543903351 13.793629586696623 90.855328261852264 38.35222826898098 47.741260424256325 219.40428264439106 19.053465306758881 57.063083857297897 47.932868979871273 27.637682996690273 19.828969642519951 385.89738562703133 83.801235981285572 21.511508911848068 70.768531113862991 20.704854115843773 26.087686836719513 15.777762547135351 60.842666521668434 22.708659380674362 11.991249710321425 16.618481650948524 70.332818955183029 39.228894338011742
leaf_count=2782 585 203 256 168 108 100 103 59 440 186 203 1527 103 249 221 150 85 2732 478 102 424 103 126 66 405 105 60 77 450 181
internal_value=0.000188948 -0.0290738 -0.0408763 0.0298863 0.0117072 -0.0127289 0.00857 0.0249547 -0.0554136 -0.0348087 -0.00880137 0.0438433 -0.00144661 -0.0418776 -0.0190715 0.013636 -0.0265491 0.0507928 0.0331089 -0.00571123 0.0451573 0.0168959 0.0025235 -0.0103112 0.0402546 0.01743 0.0176904 0.00209281 0.0489824 0.0320659
internal_weight=2296.71 1156.82 949.422 1139.89 609.715 346.352 215.712 207.401 733.71 204.586 113.731 263.363 43.9592 230.356 104.996 75.3789 102.311 530.177 144.279 60.4781 115.996 45.2273 45.9167 84.0453 113.401 38.4864 52.5583 40.5671 123.355 53.0225
internal_count=12837 5937 4873 6900 3420 1682 1112 1064 3761 979 539 1738 211 1055 470 353 467 3480 748 270 627 203 211 374 645 171 240 180 690 240
is_linear=0
shrinkage=0.05


Tree=27
num_leaves=31
num_cat=0
split_feature=2 9 9 2 2 2 8 8 8 2 2 2 2 2 6 8 2 7 6 1 1 2 7 6 6 1 2 6 7 1
split_gain=281.769 153.249 143.52 37.7939 37.3167 33.5382 17.1237 16.2076 12.9103 12.006 7.22563 6.9032 6.13895 5.42259 5.01309 4.98634 4.97514 5.61411 4.24829 4.14929 4.12467 3.98702 3.85757 3.75179 3.56025 3.50775 3.52754 3.50615 3.42983 3.36677
threshold=0.30242118047335037 1.0000000180025095e-35 1.0000000180025095e-35 0.4134137989869261 0.20102485108178411 0.5197109432232162 1.0000000180025095e-35 1.0000000180025095e-35 1.0000000180025095e-35 0.10737311470816116 0.49509509519202005 0.15086386962173678 0.67613667122062215 0.44366674328733763 7.3022499963771708 1.0000000180025095e-35 0.24433861566029372 8.6661006025009772 19.939749722114236 95.902990062672401 68.116841194955796 0.23756493983150948 31.731612982816436 4.5978652354304295 7.4885110658717711 57.035187080500606 0.29392232546468899 4.5310958156139476 23.947353380062157 63.492866094615572
decision_type=2 2 2 2 2 2 2 2 2 2 2 2 2 2 2 2 2 2 2 2 2 2 2 2 2 2 2 2 2 2
left_child=1 15 5 8 6 13 9 16 -4 24 -5 19 14 -2 23 -1 17 -6 -11 -8 22 -19 -9 -7 -3 26 -18 -23 -17 -15
right_child=2 4 3 10 7 12 11 20 -10 18 -12 -13 -14 29 -16 28 25 21 -20 -21 -22 27 -24 -25 -26 -27 -28 -29 -30 -31
